tree
version=v4
num_class=1
num_tree_per_iteration=1
label_index=0
max_feature_idx=9
objective=regression
feature_names=price_vs_sma5 price_vs_sma20 rel_momentum_5 rel_momentum_20 rsi_14 rsi_vs_vnindex volume_ratio bb_width_norm cmf_20 atr_pct
feature_infos=[-0.2281382515086052:0.27779196278923918] [-0.5:0.5] [-0.43494462316015842:0.5] [-0.5:0.5] [1.7166823852807624:99.994937928233639] [-64.723454533028786:69.2242230360729] [0:20] [0:0.47124020729473909] [-0.95895394506163478:0.97257866057303555] [0.0017769672298953:0.2071071564645468]
tree_sizes=868 925 923 924 922 924 927 927 920 925 922 916 929 932 930 920 923 923 932 931 925 907 933 922 920 929 925 932 919 926 924 917 906 924 920 934 922 930 923 920 938 924 921 924 916 915 920 909 932 930 921 932 927 932 932 925 930 922 916 923 912 928 910 921 926 922 913 909 920 930 926 911 936 917 929 919 930 930 911 910 926 900 928 916 911 913 928 916 921 920 903 907 931 916 926 924 927 924 936 920

Tree=0
num_leaves=8
num_cat=0
split_feature=8 1 1 4 1 7 7
split_gain=12.3369 15.7937 13.9719 7.98276 7.29418 6.67882 3.81323
threshold=0.05731572696003346 -0.24055793865099204 -0.14472955749670233 80.767174026956027 -0.029027589239059546 0.018091974530975503 0.031192138528528552
decision_type=2 2 2 2 2 2 2
left_child=1 5 6 -4 -3 -1 -2
right_child=2 4 3 -5 -6 -7 -8
leaf_value=0.49997386963660301 0.49660157145803707 0.5016779749181367 0.50156136917764182 0.50289327191661237 0.50207478693717666 0.50522596470568626 0.49989379906235226
leaf_weight=248 558 63861 113367 4200 120097 1796 732
leaf_count=248 558 63861 113367 4200 120097 1796 732
internal_value=0.501814 0.501966 0.501575 0.501609 0.501937 0.504589 0.49847
internal_weight=304859 186002 118857 117567 183958 2044 1290
internal_count=304859 186002 118857 117567 183958 2044 1290
is_linear=0
shrinkage=1


Tree=1
num_leaves=8
num_cat=0
split_feature=0 9 8 0 8 9 0
split_gain=37.8994 25.9013 13.2238 11.9937 5.09015 4.61877 2.84715
threshold=0.012620260026900252 0.050572600651289108 -0.38273377378860984 0.066715744111143865 0.05731572696003346 0.028616602233963753 0.12588616439868935
decision_type=2 2 2 2 2 2 2
left_child=1 5 -3 4 -2 -1 -5
right_child=3 2 -4 6 -6 -7 -8
leaf_value=0.00056651595808804636 -0.00043631666903103008 0.0013706841559603176 -0.00050946229465069883 0.00026461477250312959 -0.0009296304007343696 0.00024950580607361743 0.0018153763141780786
leaf_weight=74213 41015 3620 48132 8415 34794 93450 1220
leaf_count=74213 41015 3620 48132 8415 34794 93450 1220
internal_value=2.59926e-11 0.000208735 -0.000377948 -0.000536019 -0.000662733 0.000389825 0.000460975
internal_weight=304859 219415 51752 85444 75809 167663 9635
internal_count=304859 219415 51752 85444 75809 167663 9635
is_linear=0
shrinkage=0.03


Tree=2
num_leaves=8
num_cat=0
split_feature=2 1 3 4 7 2 3
split_gain=20.2412 11.9506 10.1213 9.50315 4.62183 2.75155 2.15292
threshold=0.016331195365054202 -0.025567952603883896 -0.19793420694597494 80.767174026956027 0.11336130377037341 0.038079544994514443 0.075030287971598955
decision_type=2 2 2 2 2 2 2
left_child=1 2 -1 5 -3 -2 -5
right_child=3 4 -4 6 -6 -7 -8
leaf_value=0.00087428824144323886 -0.00022518299479618657 0.00035536970368510592 -0.00024689222405729639 -0.0014698410223637677 -0.0020190806905053967 -0.00055757050579733215 0.0011930806598968106
leaf_weight=8097 37896 129926 68985 293 742 54867 4053
leaf_count=8097 37896 129926 68985 293 742 54867 4053
internal_value=-1.69074e-11 0.000167128 -0.000129119 -0.000357545 0.000341886 -0.000421782 0.00101355
internal_weight=304859 207750 77082 97109 130668 92763 4346
internal_count=304859 207750 77082 97109 130668 92763 4346
is_linear=0
shrinkage=0.03


Tree=3
num_leaves=8
num_cat=0
split_feature=0 9 3 0 9 9 0
split_gain=34.8808 24.156 12.8818 11.2729 4.58492 4.22215 2.62187
threshold=0.012620260026900252 0.050572600651289108 -0.16462869477194977 0.066715744111143865 0.065913347677404116 0.028616602233963753 0.12588616439868935
decision_type=2 2 2 2 2 2 2
left_child=1 5 -3 4 -2 -1 -5
right_child=3 2 -4 6 -6 -7 -8
leaf_value=0.00054406706591949672 -0.00056717353045091564 0.00059925300048609934 -0.00059833276400504654 0.00026390909956981474 -0.0014157457298202961 0.00024097339888459732 0.0017520544698075907
leaf_weight=74213 69564 10026 41726 8415 6245 93450 1220
leaf_count=74213 69564 10026 41726 8415 6245 93450 1220
internal_value=3.05675e-12 0.00020025 -0.000366323 -0.00051423 -0.000637077 0.000375132 0.000452341
internal_weight=304859 219415 51752 85444 75809 167663 9635
internal_count=304859 219415 51752 85444 75809 167663 9635
is_linear=0
shrinkage=0.03


Tree=4
num_leaves=8
num_cat=0
split_feature=8 3 5 3 7 7 8
split_gain=11.0244 10.0531 9.07089 6.18414 5.84899 2.68519 1.72552
threshold=0.05731572696003346 -0.20689491264512155 -24.313129964062934 -0.18945416933486134 0.0082700832370973514 0.12946330010094917 0.4387276923278029
decision_type=2 2 2 2 2 2 2
left_child=1 2 -1 6 -3 -5 -2
right_child=3 4 -4 5 -6 -7 -8
leaf_value=-0.0012889186291036845 -0.001737622325748793 0.00029424670910019167 0.0016704000638190391 -0.00018924234036076372 -5.1830662277972633e-05 -0.0017420190526967045 -0.0045017731185257436
leaf_weight=1095 1087 78077 6270 116509 100560 1011 250
leaf_count=1095 1087 78077 6270 116509 100560 1011 250
internal_value=-1.45447e-11 0.000144213 0.00123042 -0.000225682 9.94296e-05 -0.000202601 -0.00225448
internal_weight=304859 186002 7365 118857 178637 117520 1337
internal_count=304859 186002 7365 118857 178637 117520 1337
is_linear=0
shrinkage=0.03


Tree=5
num_leaves=8
num_cat=0
split_feature=9 8 8 9 9 7 8
split_gain=24.2762 13.9805 9.04896 8.11997 7.93123 3.81375 3.15984
threshold=0.048945554418539754 -0.38273377378860984 0.22873858278822959 0.082782803053200307 0.025376585998451901 0.00094625090772960008 0.70525952375346856
decision_type=2 2 2 2 2 2 2
left_child=4 3 -3 -2 5 -1 -6
right_child=1 2 -4 -5 6 -7 -8
leaf_value=-0.00025778664079494936 0.00046113745320593857 -0.00037956892083946132 -0.0012020571403890243 0.0033886516988993827 5.3410120927876225e-05 0.00051310869704512645 -0.0026713267392915437
leaf_weight=6393 3904 63031 14881 1091 155361 59814 384
leaf_count=6393 3904 63031 14881 1091 155361 59814 384
internal_value=-2.42561e-11 -0.000438022 -0.000536662 0.00110056 0.000163617 0.00043867 4.66921e-05
internal_weight=304859 82907 77912 4995 221952 66207 155745
internal_count=304859 82907 77912 4995 221952 66207 155745
is_linear=0
shrinkage=0.03


Tree=6
num_leaves=8
num_cat=0
split_feature=0 9 7 0 4 9 0
split_gain=32.3111 21.6772 12.5739 10.8763 7.49415 4.20292 2.51804
threshold=0.012620260026900252 0.050572600651289108 0.018091974530975503 0.066715744111143865 44.560518074142841 0.065913347677404116 0.12588616439868935
decision_type=2 2 2 2 2 2 2
left_child=1 4 -3 5 -1 -2 -5
right_child=3 2 -4 6 -6 -7 -8
leaf_value=7.199015514243268e-05 -0.00054866382186309702 -0.00099133378002772997 -6.194182761371664e-06 0.00026982493266859009 0.00049885549183462357 -0.0013611172360669692 0.0017282067288551097
leaf_weight=55168 69564 17745 34007 8415 112495 6245 1220
leaf_count=55168 69564 17745 34007 8415 112495 6245 1220
internal_value=-9.59911e-13 0.000192733 -0.000343984 -0.000494926 0.000358399 -0.000615592 0.000454488
internal_weight=304859 219415 51752 85444 167663 75809 9635
internal_count=304859 219415 51752 85444 167663 75809 9635
is_linear=0
shrinkage=0.03


Tree=7
num_leaves=8
num_cat=0
split_feature=2 1 1 1 2 7 5
split_gain=17.1995 10.5143 8.76329 7.11036 4.17477 4.15082 2.97074
threshold=0.016331195365054202 -0.021852490272903896 -0.24055793865099204 0.13115864557934462 0.050698133400821681 0.11336130377037341 1.8480898101844139
decision_type=2 2 2 2 2 2 2
left_child=1 2 -1 4 -2 -3 -5
right_child=3 5 -4 6 -6 -7 -8
leaf_value=0.001698429720745109 -0.00026830598729289548 0.00034203068445101274 -0.00015917717893268758 -0.00070351224148439487 -0.00070644120840452989 -0.0019252693914220999 0.00047491499644304228
leaf_weight=2352 50988 123695 80972 2291 31768 731 12062
leaf_count=2352 50988 123695 80972 2291 31768 731 12062
internal_value=-1.99703e-11 0.00015406 -0.000106742 -0.000329588 -0.000436495 0.00032871 0.000286817
internal_weight=304859 207750 83324 97109 82756 124426 14353
internal_count=304859 207750 83324 97109 82756 124426 14353
is_linear=0
shrinkage=0.03


Tree=8
num_leaves=8
num_cat=0
split_feature=0 9 5 4 4 4 4
split_gain=29.8314 20.2597 12.4044 9.98161 7.1433 5.02389 2.87869
threshold=0.011456791570288002 0.050572600651289108 -33.28458724112452 75.228943648242833 44.560518074142841 61.315097838428919 87.455020011509248
decision_type=2 2 2 2 2 2 2
left_child=1 4 -3 5 -1 -2 -5
right_child=3 2 -4 6 -6 -7 -8
leaf_value=7.5559625974272064e-05 -0.00037605836029961693 -0.0045854301771305027 -0.00027811366360948602 0.00025110374250275326 0.00049561534667933653 -0.0008612056975301649 0.0018735833297440598
leaf_weight=54757 47930 609 50434 9069 108896 32060 1104
leaf_count=54757 47930 609 50434 9069 108896 32060 1104
internal_value=-9.58049e-13 0.000192314 -0.000329505 -0.000457938 0.000355068 -0.000570505 0.000427179
internal_weight=304859 214696 51043 90163 163653 79990 10173
internal_count=304859 214696 51043 90163 163653 79990 10173
is_linear=0
shrinkage=0.03


Tree=9
num_leaves=8
num_cat=0
split_feature=2 8 2 5 5 8 7
split_gain=15.5544 6.69495 9.34281 4.55683 2.4478 4.08244 3.34994
threshold=0.016331195365054202 0.22458839652658877 -0.14517893417668179 7.9229100135605348 6.4687035157739539 0.23268412186862772 0.073452200336027271
decision_type=2 2 2 2 2 2 2
left_child=1 3 -3 -1 5 -2 -6
right_child=4 2 -4 -5 6 -7 -8
leaf_value=0.00017466236079176391 -0.00034106463547086015 -0.004448563642878281 -0.00020637354859568647 0.00078135533422722637 -0.00020751881618321361 -0.0010822654490757291 0.0010090000691572671
leaf_weight=166736 45078 475 28599 11940 42037 7853 2141
leaf_count=166736 45078 475 28599 11940 42037 7853 2141
internal_value=-9.97779e-13 0.000146507 -0.000275681 0.000215205 -0.000313429 -0.000451031 -0.000148563
internal_weight=304859 207750 29074 178676 97109 52931 44178
internal_count=304859 207750 29074 178676 97109 52931 44178
is_linear=0
shrinkage=0.03


Tree=10
num_leaves=8
num_cat=0
split_feature=0 1 0 1 6 7 1
split_gain=27.4532 11.6263 9.63634 8.30372 6.25988 3.85438 2.88194
threshold=0.011456791570288002 -0.021236754997868246 0.079192540435361766 -0.24055793865099204 0.73123732926985718 0.094028150703569915 0.13115864557934462
decision_type=2 2 2 2 2 2 2
left_child=1 3 6 -1 -4 -3 -2
right_child=2 5 4 -5 -6 -7 -8
leaf_value=0.001691883595359339 -0.00058322417237723794 0.00037878359712960715 0.0037847761130080254 -0.00014094671107995151 0.00041225246593714357 -0.0011640243076937395 -1.2940759955651603e-05
leaf_weight=2287 75160 129271 544 81664 5537 1474 8922
leaf_count=2287 75160 129271 544 81664 5537 1474 8922
internal_value=6.48538e-12 0.000184489 -0.000439305 -9.10166e-05 0.000713955 0.00036139 -0.000522711
internal_weight=304859 214696 90163 83951 6081 130745 84082
internal_count=304859 214696 90163 83951 6081 130745 84082
is_linear=0
shrinkage=0.03


Tree=11
num_leaves=8
num_cat=0
split_feature=9 8 1 1 1 5 1
split_gain=20.5133 12.4456 9.05714 12.2873 8.80659 7.6007 4.37964
threshold=0.045525620089622361 -0.38273377378860984 0.031948623390603809 0.13115864557934462 -0.24055793865099204 -31.405229524629842 -0.015227072278713399
decision_type=2 2 2 2 2 2 2
left_child=2 4 6 -4 -2 -3 -1
right_child=1 5 3 -5 -6 -7 -8
leaf_value=9.360368300433792e-05 0.0039553015204334884 -0.003111757772919234 -0.00027663866539753585 0.0013074888980827001 0.00053881103011838385 -0.00040764664908590363 0.00042865924278468441
leaf_weight=57907 791 945 53292 4804 4797 93131 89192
leaf_count=57907 791 945 53292 4804 4797 93131 89192
internal_value=4.61499e-12 -0.000353105 0.000171504 -0.000145646 0.00102243 -0.00043481 0.000296761
internal_weight=304859 99664 205195 58096 5588 94076 147099
internal_count=304859 99664 205195 58096 5588 94076 147099
is_linear=0
shrinkage=0.03


Tree=12
num_leaves=8
num_cat=0
split_feature=1 1 3 7 4 7 4
split_gain=7.05915 10.2327 8.81474 7.80042 5.47009 4.20813 3.4769
threshold=0.031948623390603809 -0.021236754997868246 -0.19793420694597494 0.016052930769109054 73.452280830427867 0.026946616465108604 82.314767998289554
decision_type=2 2 2 2 2 2 2
left_child=1 2 -1 4 -2 -3 -5
right_child=3 5 -4 6 -6 -7 -8
leaf_value=0.00073797747116059634 -0.0006078124740576884 0.00033410549375926233 -0.00023224433242085272 5.9646962932875192e-06 0.00033809121990839922 -0.00030899314263649487 0.0011531309343947123
leaf_weight=9342 41816 108694 86113 40030 6336 10000 2528
leaf_count=9342 41816 108694 86113 40030 6336 10000 2528
internal_value=5.90123e-12 9.39545e-05 -0.000137291 -0.000221809 -0.000483347 0.000279924 7.41078e-05
internal_weight=304859 214149 95455 90710 48152 118694 42558
internal_count=304859 214149 95455 90710 48152 118694 42558
is_linear=0
shrinkage=0.03


Tree=13
num_leaves=8
num_cat=0
split_feature=9 8 3 5 9 7 8
split_gain=19.2787 12.6423 14.7424 7.45287 6.37291 4.02625 2.8634
threshold=0.048945554418539754 0.016684519617774052 -0.19793420694597494 10.023167851284468 0.024542851108688653 0.00094625090772960008 0.047510228814494307
decision_type=2 2 2 2 2 2 2
left_child=4 2 -2 -3 5 -1 -6
right_child=1 3 -4 -5 6 -7 -8
leaf_value=-0.00030985470993086158 0.0011829100846085462 -0.0010482048644676046 -0.00028868142600361893 -0.0001172680288794605 0.00015311617081929766 0.00049334905334632348 -0.00010341399013725682
leaf_weight=6271 7339 27739 37094 10735 95415 53845 66421
leaf_count=6271 7339 27739 37094 10735 95415 53845 66421
internal_value=3.1508e-12 -0.000390341 -4.56186e-05 -0.000788455 0.000145806 0.000409563 4.78306e-05
internal_weight=304859 82907 44433 38474 221952 60116 161836
internal_count=304859 82907 44433 38474 221952 60116 161836
is_linear=0
shrinkage=0.03


Tree=14
num_leaves=8
num_cat=0
split_feature=0 1 0 8 8 8 5
split_gain=25.1034 9.99914 9.45912 7.61667 4.69451 4.2571 2.38329
threshold=0.012620260026900252 -0.021236754997868246 0.066715744111143865 -0.30291624991629357 0.20872247640886629 0.05731572696003346 27.03593380984853
decision_type=2 2 2 2 2 2 2
left_child=1 3 5 -1 -3 -2 -4
right_child=2 4 6 -5 -6 -7 -8
leaf_value=0.00048669902145245521 -0.000341714508100442 0.00042367973074024565 0.00062601749067080757 -0.00022700795543014881 -5.9113843209470927e-06 -0.00079285844616424316 -0.00080958035068632369
leaf_weight=16784 41015 105488 8448 67903 29240 34794 1187
leaf_count=16784 41015 105488 8448 67903 29240 34794 1187
internal_value=9.72945e-13 0.000169881 -0.000436245 -8.55594e-05 0.000330446 -0.000548776 0.000449157
internal_weight=304859 219415 85444 84687 134728 75809 9635
internal_count=304859 219415 85444 84687 134728 75809 9635
is_linear=0
shrinkage=0.03


Tree=15
num_leaves=8
num_cat=0
split_feature=0 1 0 1 6 2 1
split_gain=23.6576 9.56482 8.6012 7.11063 5.88969 4.15666 2.6426
threshold=0.011456791570288002 -0.021236754997868246 0.079192540435361766 -0.24055793865099204 0.73123732926985718 0.037190122166969451 0.13115864557934462
decision_type=2 2 2 2 2 2 2
left_child=1 3 6 -1 -4 -3 -2
right_child=2 5 4 -5 -6 -7 -8
leaf_value=0.0015712223758482852 -0.0005445526028700666 0.00038523781889064044 0.00366039060151332 -0.00012483171092840355 0.00038910577373551559 -0.00020287180950248588 1.536926290045947e-06
leaf_weight=2287 75160 118846 544 81664 5537 11899 8922
leaf_count=2287 75160 118846 544 81664 5537 11899 8922
internal_value=2.87332e-12 0.000171261 -0.000407807 -7.86277e-05 0.000681752 0.000331714 -0.000486607
internal_weight=304859 214696 90163 83951 6081 130745 84082
internal_count=304859 214696 90163 83951 6081 130745 84082
is_linear=0
shrinkage=0.03


Tree=16
num_leaves=8
num_cat=0
split_feature=2 4 8 4 3 8 3
split_gain=12.6268 7.06883 6.40175 9.55118 5.69393 3.69225 1.70857
threshold=0.012328410101755947 80.767174026956027 0.22873858278822959 19.058546176058986 -0.20689491264512155 0.05731572696003346 0.075030287971598955
decision_type=2 2 2 2 2 2 2
left_child=2 5 4 -4 -1 -2 -3
right_child=1 6 3 -5 -6 -7 -8
leaf_value=0.0010653475085636989 -0.00013806127044893804 -0.0012511241055231115 -0.0058007118587681495 -0.00023082596653970403 0.00017430693708725149 -0.00049855330284092768 0.0010764378635972922
leaf_weight=6718 52508 305 280 26579 164534 49844 4091
leaf_count=6718 52508 305 280 26579 164534 49844 4091
internal_value=6.22054e-12 -0.000263022 0.000141724 -0.000288891 0.000209261 -0.000313616 0.000914949
internal_weight=304859 106748 198111 26859 171252 102352 4396
internal_count=304859 106748 198111 26859 171252 102352 4396
is_linear=0
shrinkage=0.03


Tree=17
num_leaves=8
num_cat=0
split_feature=2 1 3 4 2 7 4
split_gain=11.8805 7.77851 7.21509 6.66924 3.2341 3.06224 2.12812
threshold=0.012328410101755947 -0.025567952603883896 -0.19793420694597494 75.228943648242833 0.050698133400821681 0.11336130377037341 87.455020011509248
decision_type=2 2 2 2 2 2 2
left_child=1 2 -1 4 -2 -3 -5
right_child=3 5 -4 6 -6 -7 -8
leaf_value=0.00074845559425649989 -0.00019979987748229995 0.00029643664685693539 -0.0002033019141685652 0.00030665151973325894 -0.000559593538828956 -0.0016698856560635636 0.0016720492869797769
leaf_weight=8021 60006 121921 67452 9633 35959 717 1150
leaf_count=8021 60006 121921 67452 9633 35959 717 1150
internal_value=4.17158e-12 0.000137472 -0.000102153 -0.000255132 -0.000334618 0.000284941 0.00045227
internal_weight=304859 198111 75473 106748 95965 122638 10783
internal_count=304859 198111 75473 106748 95965 122638 10783
is_linear=0
shrinkage=0.03


Tree=18
num_leaves=8
num_cat=0
split_feature=0 1 0 8 8 8 0
split_gain=21.3706 8.77932 8.3841 7.72173 4.17893 3.88668 2.02785
threshold=0.012620260026900252 -0.029778816600344198 0.066715744111143865 -0.23319579608519478 0.22458839652658877 0.05731572696003346 0.12588616439868935
decision_type=2 2 2 2 2 2 2
left_child=1 3 5 -1 -3 -2 -4
right_child=2 4 6 -5 -6 -7 -8
leaf_value=0.00032534311205188602 -0.00031060175003836901 0.00036486746354453165 0.00026534937389042232 -0.00034017205298593478 -3.9351739550825652e-05 -0.00074167124190104494 0.0015741032350065996
leaf_weight=23521 41015 120297 8415 47132 28465 34794 1220
leaf_count=23521 41015 120297 8415 47132 28465 34794 1220
internal_value=3.58333e-12 0.000156743 -0.000402506 -0.000118616 0.000287522 -0.000508449 0.000431066
internal_weight=304859 219415 85444 70653 148762 75809 9635
internal_count=304859 219415 85444 70653 148762 75809 9635
is_linear=0
shrinkage=0.03


Tree=19
num_leaves=8
num_cat=0
split_feature=2 1 3 1 2 5 6
split_gain=10.78 6.98052 6.72302 5.05553 3.66841 3.53985 3.20411
threshold=0.012328410101755947 -0.025567952603883896 -0.19793420694597494 0.13115864557934462 0.050698133400821681 7.9229100135605348 0.68592680871251266
decision_type=2 2 2 2 2 2 2
left_child=1 2 -1 4 -2 -3 -5
right_child=3 5 -4 6 -6 -7 -8
leaf_value=0.00072503935327627772 -0.00018774967626301368 0.00021918958863862578 -0.00019368983728813914 0.0017019844920236013 -0.00058587573755931855 0.00077546553416378778 0.00013820508242825755
leaf_weight=8021 60494 111293 67452 1295 31768 11345 13191
leaf_count=8021 60494 111293 67452 1295 31768 11345 13191
internal_value=3.06423e-12 0.00013095 -9.60506e-05 -0.000243027 -0.000324834 0.00027065 0.000278002
internal_weight=304859 198111 75473 106748 92262 122638 14486
internal_count=304859 198111 75473 106748 92262 122638 14486
is_linear=0
shrinkage=0.03


Tree=20
num_leaves=8
num_cat=0
split_feature=0 4 4 8 8 8 4
split_gain=19.7213 7.80848 6.32461 5.94801 5.51776 4.05483 2.45407
threshold=0.011456791570288002 73.452280830427867 44.957463618465759 0.05731572696003346 -0.3595587435401783 0.13545997051547512 87.455020011509248
decision_type=2 2 2 2 2 2 2
left_child=2 3 4 -2 -1 -4 -3
right_child=1 6 5 -5 -6 -7 -8
leaf_value=0.00055968013711092137 -0.00026295199895686063 0.00018348349342247919 0.00040148771788724652 -0.00079655133344250543 -0.00014018516534019846 3.829574980348178e-05 0.0016623991896188312
leaf_weight=11756 44852 11837 89132 32370 73690 40118 1104
leaf_count=11756 44852 11837 89132 32370 73690 40118 1104
internal_value=3.78972e-13 -0.000372338 0.000156366 -0.000486627 -4.38949e-05 0.000288756 0.00030965
internal_weight=304859 90163 214696 77222 85446 129250 12941
internal_count=304859 90163 214696 77222 85446 129250 12941
is_linear=0
shrinkage=0.03


Tree=21
num_leaves=8
num_cat=0
split_feature=6 6 3 4 4 5 5
split_gain=5.29192 5.64678 5.63233 3.06848 2.82041 2.32942 1.7033
threshold=1.7909292797478169 0.27474063399346355 -0.19793420694597494 22.429556740755505 69.975633543363003 27.03593380984853 23.214297654295859
decision_type=2 2 2 2 2 2 2
left_child=1 3 -3 -1 6 -6 -2
right_child=4 2 -4 -5 5 -7 -8
leaf_value=-0.0035336762623451993 -0.0005051088026652898 0.00083977698626849578 4.2200624987532955e-05 -0.0005615860055678927 0.00037843137152612137 -0.0011785445920624595 -0.002067430319717822
leaf_weight=323 21439 8223 257654 9745 5812 1016 647
leaf_count=323 21439 8223 257654 9745 5812 1016 647
internal_value=-9.17792e-13 4.04596e-05 6.68679e-05 -0.000656936 -0.000386132 0.000146755 -0.000550876
internal_weight=304859 275945 265877 10068 28914 6828 22086
internal_count=304859 275945 265877 10068 28914 6828 22086
is_linear=0
shrinkage=0.03


Tree=22
num_leaves=8
num_cat=0
split_feature=9 7 9 3 9 6 7
split_gain=17.4797 9.88804 10.3607 8.85875 5.13718 3.65008 3.49527
threshold=0.048945554418539754 0.017038485676202354 0.07097124757484137 -0.19793420694597494 0.028459141315656453 0.22917635223723584 0.00094625090772960008
decision_type=2 2 2 2 2 2 2
left_child=4 2 -2 -3 6 -6 -1
right_child=1 3 -4 -5 5 -7 -8
leaf_value=-0.00033936355855475103 -0.00061283335142405535 0.00080109842752543496 -0.0023245623006522163 -0.00029854651764305094 -0.0011327094400888262 4.2190927858569092e-05 0.00036927995773647262
leaf_weight=6781 21885 7602 3724 49696 2424 130549 82198
leaf_count=6781 21885 7602 3724 49696 2424 130549 82198
internal_value=1.16155e-13 -0.000371683 -0.000861749 -0.000152651 0.000138837 2.07734e-05 0.000315275
internal_weight=304859 82907 25609 57298 221952 132973 88979
internal_count=304859 82907 25609 57298 221952 132973 88979
is_linear=0
shrinkage=0.03


Tree=23
num_leaves=8
num_cat=0
split_feature=0 9 8 0 4 9 0
split_gain=18.3897 15.5754 9.14051 7.47387 5.10621 3.858 1.84158
threshold=0.011456791570288002 0.051434809941650908 0.23268412186862772 0.066715744111143865 42.54257772823987 0.065913347677404116 0.12588616439868935
decision_type=2 2 2 2 2 2 2
left_child=1 4 -3 5 -1 -2 -5
right_child=3 2 -4 6 -6 -7 -8
leaf_value=1.2599589407532835e-05 -0.00039281127359545864 -0.00014983634674253793 -0.0013100831835632638 0.00027216614434344042 0.00038960255859471477 -0.0011583895643248903 0.0015193654203102312
leaf_weight=44008 74089 41643 7162 8415 121883 6439 1220
leaf_count=44008 74089 41643 7162 8415 121883 6439 1220
internal_value=-1.00016e-12 0.000150995 -0.000320099 -0.000359548 0.00028959 -0.000454027 0.000430089
internal_weight=304859 214696 48805 90163 165891 80528 9635
internal_count=304859 214696 48805 90163 165891 80528 9635
is_linear=0
shrinkage=0.03


Tree=24
num_leaves=8
num_cat=0
split_feature=0 9 8 0 6 4 9
split_gain=17.351 14.6008 8.68652 7.33859 4.99154 4.6527 3.68625
threshold=0.012620260026900252 0.051434809941650908 0.23268412186862772 0.066715744111143865 0.42789765583504907 40.012477654485188 0.065913347677404116
decision_type=2 2 2 2 2 2 2
left_child=1 5 -3 6 -5 -1 -2
right_child=3 2 -4 4 -6 -7 -8
leaf_value=-5.3110878101527585e-05 -0.00039912050241688868 -0.00014719759973181847 -0.0012692618790471595 0.0045753356856406708 0.00030505509220334846 0.00034877041798465972 -0.001159999267359533
leaf_weight=31924 69564 42192 7281 253 9382 138018 6245
leaf_count=31924 69564 42192 7281 253 9382 138018 6245
internal_value=-7.99069e-13 0.000141235 -0.000312333 -0.000362682 0.000417186 0.000273276 -0.0004618
internal_weight=304859 219415 49473 85444 9635 169942 75809
internal_count=304859 219415 49473 85444 9635 169942 75809
is_linear=0
shrinkage=0.03


Tree=25
num_leaves=8
num_cat=0
split_feature=2 1 1 1 2 6 7
split_gain=8.97701 5.8719 6.00023 4.74959 3.08758 2.99103 2.79147
threshold=0.012328410101755947 -0.015227072278713399 -0.24055793865099204 0.13115864557934462 0.050698133400821681 0.68592680871251266 0.11336130377037341
decision_type=2 2 2 2 2 2 2
left_child=1 2 -1 4 -2 -5 -3
right_child=3 6 -4 5 -6 -7 -8
leaf_value=0.0014431376456033862 -0.0001753029084191925 0.00028652890096036792 -9.1865008211685051e-05 0.0016590628173441849 -0.00054055321375107298 0.0001481745598474925 -0.0016279490860609297
leaf_weight=2351 60494 103925 91145 1295 31768 13191 690
leaf_count=2351 60494 103925 91145 1295 31768 13191 690
internal_value=-2.44907e-13 0.000119499 -5.32667e-05 -0.000221775 -0.000301067 0.000283243 0.000273902
internal_weight=304859 198111 93496 106748 92262 14486 104615
internal_count=304859 198111 93496 106748 92262 14486 104615
is_linear=0
shrinkage=0.03


Tree=26
num_leaves=8
num_cat=0
split_feature=9 8 4 9 9 6 5
split_gain=14.8131 10.8018 7.89924 7.57811 4.62306 4.26775 2.4559
threshold=0.048945554418539754 0.016684519617774052 19.058546176058986 0.10246094818920361 0.024542851108688653 0.18681119916079472 -1.7952060056064327
decision_type=2 2 2 2 2 2 2
left_child=4 3 -3 -2 6 -6 -1
right_child=1 2 -4 -5 5 -7 -8
leaf_value=0.00021918457815917302 -9.775261315018779e-05 -0.0054796933570666418 -0.00067141294656708115 0.0020441559196635777 -0.0014429158002445066 6.0318982581665379e-05 0.00062834065348477326
leaf_weight=40535 42893 310 38164 1540 1718 160118 19581
leaf_count=40535 42893 310 38164 1540 1718 160118 19581
internal_value=-2.07731e-12 -0.000342159 -0.000710155 -2.35164e-05 0.000127809 4.43611e-05 0.000352455
internal_weight=304859 82907 38474 44433 221952 161836 60116
internal_count=304859 82907 38474 44433 221952 161836 60116
is_linear=0
shrinkage=0.03


Tree=27
num_leaves=8
num_cat=0
split_feature=0 1 1 1 6 1 2
split_gain=15.8707 6.81851 6.74385 5.53445 3.91281 3.18604 2.85276
threshold=0.011456791570288002 -0.015227072278713399 0.13115864557934462 -0.24055793865099204 0.64519230989139165 0.03411900311060246 0.037190122166969451
decision_type=2 2 2 2 2 2 2
left_child=1 3 5 -1 -4 -2 -3
right_child=2 6 4 -5 -6 -7 -8
leaf_value=0.0014097580453515239 -0.00023676486877895141 0.00034002743636119388 0.0022313149718724101 -8.3995139422389417e-05 0.00015429149322237568 -0.00062358451146684452 -0.00015596909117725024
leaf_weight=2287 36181 107459 874 93391 12364 40744 11559
leaf_count=2287 36181 107459 874 93391 12364 40744 11559
internal_value=1.30573e-12 0.000140272 -0.000334016 -4.82898e-05 0.000291421 -0.000441647 0.000291856
internal_weight=304859 214696 90163 95678 13238 76925 119018
internal_count=304859 214696 90163 95678 13238 76925 119018
is_linear=0
shrinkage=0.03


Tree=28
num_leaves=8
num_cat=0
split_feature=0 0 6 0 6 6 7
split_gain=14.9454 6.8438 5.55922 13.5804 4.8199 4.14653 2.28268
threshold=0.012620260026900252 0.063751893902896012 0.27474063399346355 -0.085666804839165542 0.42789765583504907 1.943059242309424 0.036800336320356508
decision_type=2 2 2 2 2 2 2
left_child=2 6 3 -1 -3 -4 -2
right_child=1 4 5 -5 -6 -7 -8
leaf_value=-0.0074730726861162115 -0.00037159658502853774 0.0043036378729975891 0.00018726075014841454 -0.00040630313881187487 0.00026624555378606618 -0.0005355085441499101 -0.00084794593482919573
leaf_weight=252 64066 273 203259 8500 10561 7404 10544
leaf_count=252 64066 273 203259 8500 10561 7404 10544
internal_value=7.75159e-13 -0.000336603 0.000131079 -0.00060978 0.000367982 0.000161858 -0.000438915
internal_weight=304859 85444 219415 8752 10834 210663 74610
internal_count=304859 85444 219415 8752 10834 210663 74610
is_linear=0
shrinkage=0.03


Tree=29
num_leaves=8
num_cat=0
split_feature=0 4 1 3 4 7 4
split_gain=14.0825 6.66384 6.36881 5.63687 5.12048 2.9569 2.16033
threshold=0.011456791570288002 73.452280830427867 -0.015227072278713399 -0.1595429523253542 63.337390576360569 0.11336130377037341 87.455020011509248
decision_type=2 2 2 2 2 2 2
left_child=2 4 3 -1 -2 -4 -3
right_child=1 6 5 -5 -6 -7 -8
leaf_value=0.00052785401784950076 -0.00025777534840720756 0.00019701044068537118 0.00029169375147576837 -0.00014184701072288857 -0.00078759692807799987 -0.0014334580852255639 0.0015845960728699498
leaf_weight=13107 53546 11837 118117 82571 23676 901 1104
leaf_count=13107 53546 11837 118117 82571 23676 901 1104
internal_value=3.84992e-12 -0.000314637 0.000132134 -5.01042e-05 -0.000420217 0.000278634 0.000315386
internal_weight=304859 90163 214696 95678 77222 119018 12941
internal_count=304859 90163 214696 95678 77222 119018 12941
is_linear=0
shrinkage=0.03


Tree=30
num_leaves=8
num_cat=0
split_feature=9 8 1 1 1 1 8
split_gain=13.7854 10.1212 11.708 7.29627 4.94771 8.08008 3.3598
threshold=0.048945554418539754 0.016684519617774052 -0.24055793865099204 -0.15929987034706813 0.13115864557934462 0.031948623390603809 0.64388476519388183
decision_type=2 2 2 2 2 2 2
left_child=4 2 -2 -3 5 -1 -6
right_child=1 3 -4 -5 6 -7 -8
leaf_value=0.00021067368716730776 0.0022214508419252524 -0.0028850145497114968 -0.00012735931204308526 -0.00060866504752851518 0.0010335904363622001 -0.00020295476373848419 -0.0045089500823523847
leaf_weight=157335 2000 1312 42433 37162 6279 58238 100
leaf_count=157335 2000 1312 42433 37162 6279 58238 100
internal_value=-3.96249e-12 -0.000330077 -2.16356e-05 -0.000686291 0.000123296 9.89301e-05 0.000946703
internal_weight=304859 82907 44433 38474 221952 215573 6379
internal_count=304859 82907 44433 38474 221952 215573 6379
is_linear=0
shrinkage=0.03


Tree=31
num_leaves=8
num_cat=0
split_feature=9 8 1 7 1 1 7
split_gain=13.0694 9.40872 6.52389 6.42226 6.31981 8.03437 3.12654
threshold=0.045525620089622361 -0.38273377378860984 -0.24055793865099204 0.017038485676202354 0.13115864557934462 0.031948623390603809 0.10204661960631072
decision_type=2 2 2 2 2 2 2
left_child=4 2 -2 -3 5 -1 -6
right_child=1 3 -4 -5 6 -7 -8
leaf_value=0.00022545233599067236 0.003438457488249393 -0.00068832147451413522 0.00049790009327378769 -0.00016972168759275968 0.001357880679361411 -0.00020448028979784186 -0.0028082044996387725
leaf_weight=147099 791 33227 4797 60849 4636 53292 168
leaf_count=147099 791 33227 4797 60849 4636 53292 168
internal_value=1.97443e-13 -0.000281847 0.000914146 -0.000352888 0.000136894 0.000111116 0.00121219
internal_weight=304859 99664 5588 94076 205195 200391 4804
internal_count=304859 99664 5588 94076 205195 200391 4804
is_linear=0
shrinkage=0.03


Tree=32
num_leaves=8
num_cat=0
split_feature=8 1 1 7 4 7 1
split_gain=7.0758 12.4002 8.36853 5.21015 5.02373 4.6452 3.86242
threshold=0.17370695287715027 -0.14472955749670233 -0.24055793865099204 0.018091974530975503 80.767174026956027 0.031192138528528552 -0.079657318482070291
decision_type=2 2 2 2 2 2 2
left_child=2 5 3 -1 -3 -2 -4
right_child=1 4 6 -5 -6 -7 -8
leaf_value=-0.0021222327130381016 -0.006621997363225259 -0.00028385385316975515 -0.00026766401021388066 0.0024866162998819631 0.0008594005598165093 -0.0019438585702511342 0.00010682286624623861
leaf_weight=250 347 65225 28199 1887 3653 425 204873
leaf_count=250 347 65225 28199 1887 3653 425 204873
internal_value=4.15532e-13 -0.000265599 7.8649e-05 0.00194744 -0.00022322 -0.0040466 6.15143e-05
internal_weight=304859 69650 235209 2137 68878 772 233072
internal_count=304859 69650 235209 2137 68878 772 233072
is_linear=0
shrinkage=0.03


Tree=33
num_leaves=8
num_cat=0
split_feature=2 5 8 4 8 4 3
split_gain=7.13848 5.50192 6.30388 5.0757 3.77188 1.74303 1.6642
threshold=0.012328410101755947 7.9229100135605348 0.22458839652658877 73.452280830427867 0.05731572696003346 87.455020011509248 0.20555636635123853
decision_type=2 2 2 2 2 2 2
left_child=1 2 -1 4 -2 -5 -3
right_child=3 6 -4 5 -6 -7 -8
leaf_value=0.00012800739852142424 -0.00010374599954690147 0.00052337767567984595 -0.00040250178575188537 0.00023769780552173309 -0.00048767560919742397 0.0014576533629936854 0.001399683652934235
leaf_weight=159941 50912 12803 23066 12633 42053 1150 2301
leaf_count=159941 50912 12803 23066 12633 42053 1150 2301
internal_value=2.05334e-12 0.000106561 6.11426e-05 -0.000197765 -0.000277418 0.000339486 0.000656877
internal_weight=304859 198111 183007 106748 92965 13783 15104
internal_count=304859 198111 183007 106748 92965 13783 15104
is_linear=0
shrinkage=0.03


Tree=34
num_leaves=8
num_cat=0
split_feature=9 5 1 2 9 1 6
split_gain=12.2681 10.4415 13.4441 5.2349 5.80917 4.76466 2.92197
threshold=0.052029465161586706 -33.28458724112452 -0.24055793865099204 0.012328410101755947 0.023498566946838956 -0.24055793865099204 0.18681119916079472
decision_type=2 2 2 2 2 2 2
left_child=3 5 -3 6 -5 -2 -1
right_child=1 2 -4 4 -6 -7 -8
leaf_value=-0.00090072538757461217 -0.0079856597611319222 0.0020106784603078163 -0.00038912361642422862 0.00052873050445636767 -0.00019405114938618849 -0.0024126824598599442 0.00022237364723604478
leaf_weight=2114 201 2169 66996 11681 69871 441 151386
leaf_count=2114 201 2169 66996 11681 69871 441 151386
internal_value=6.07691e-12 -0.000349215 -0.000313866 0.000103712 -9.05244e-05 -0.00415749 0.000206906
internal_weight=304859 69807 69165 235052 81552 642 153500
internal_count=304859 69807 69165 235052 81552 642 153500
is_linear=0
shrinkage=0.03


Tree=35
num_leaves=8
num_cat=0
split_feature=9 7 9 8 9 3 7
split_gain=11.602 10.7082 8.34512 8.05552 4.59682 4.11405 3.49759
threshold=0.054319957434630757 0.017876147054246554 0.07097124757484137 0.12919180891423038 0.028459141315656453 -0.1595429523253542 0.00094625090772960008
decision_type=2 2 2 2 2 2 2
left_child=4 2 -2 -3 6 -6 -1
right_child=1 3 -4 -5 5 -7 -8
leaf_value=-0.00039026853896858795 -0.00063705153763773373 0.00015633831589019197 -0.0021965446699414833 -0.00070957865950922413 0.00097777199144902542 -3.0396575404958735e-05 0.00031861046403587812
leaf_weight=6781 12953 29958 4055 14277 3733 150904 82198
leaf_count=6781 12953 29958 4055 14277 3733 150904 82198
internal_value=5.02277e-12 -0.000369116 -0.00100886 -0.000123139 9.27927e-05 -6.05898e-06 0.000264588
internal_weight=304859 61243 17008 44235 243616 154637 88979
internal_count=304859 61243 17008 44235 243616 154637 88979
is_linear=0
shrinkage=0.03


Tree=36
num_leaves=8
num_cat=0
split_feature=0 9 5 0 4 9 5
split_gain=12.3027 10.625 11.2072 6.4316 3.94094 3.22399 2.63953
threshold=0.012909218676975802 0.051434809941650908 -33.28458724112452 0.063751893902896012 40.012477654485188 0.065913347677404116 31.464350933434826
decision_type=2 2 2 2 2 2 2
left_child=1 4 -3 5 -1 -2 -5
right_child=3 2 -4 6 -6 -7 -8
leaf_value=-7.0358481722892038e-05 -0.00034978208764302899 -0.0043506445068777246 -0.00021874470274786144 0.00049768289067486356 0.00029907475666029798 -0.0010756991188370436 -0.0013982749771328591
leaf_weight=31965 67424 598 49063 10127 138979 5996 707
leaf_count=31965 67424 598 49063 10127 138979 5996 707
internal_value=-6.46761e-13 0.000117777 -0.0002685 -0.000308379 0.000229994 -0.000409066 0.000373957
internal_weight=304859 220605 49661 84254 170944 73420 10834
internal_count=304859 220605 49661 84254 170944 73420 10834
is_linear=0
shrinkage=0.03


Tree=37
num_leaves=8
num_cat=0
split_feature=9 3 9 6 2 9 7
split_gain=10.5 8.28952 6.98931 4.736 3.65609 6.33927 2.90186
threshold=0.045525620089622361 -0.16462869477194977 0.07097124757484137 2.8370718706990594 0.0067058882980420139 0.023498566946838956 0.00094625090772960008
decision_type=2 2 2 2 2 2 2
left_child=4 3 -3 -2 6 -6 -1
right_child=1 2 -4 -5 5 -7 -8
leaf_value=-0.00047910109344283578 0.00051056954904846305 -0.00024291222254170904 -0.00097749034649017067 -0.0036245111576015654 0.00050621400003652184 -0.00016409345735912773 0.00025499937563789791
leaf_weight=5052 13412 72092 13906 254 15759 65372 119012
leaf_count=5052 13412 72092 13906 254 15759 65372 119012
internal_value=5.03436e-13 -0.000252628 -0.000361695 0.000433714 0.000122702 -3.3892e-05 0.000225106
internal_weight=304859 99664 85998 13666 205195 81131 124064
internal_count=304859 99664 85998 13666 205195 81131 124064
is_linear=0
shrinkage=0.03


Tree=38
num_leaves=8
num_cat=0
split_feature=2 4 1 3 4 6 4
split_gain=5.8497 4.83089 4.40899 4.78547 3.03421 2.50668 1.6499
threshold=0.012328410101755947 73.452280830427867 -0.015227072278713399 -0.19793420694597494 55.876558972135889 0.34540769435248392 87.455020011509248
decision_type=2 2 2 2 2 2 2
left_child=2 5 3 -1 -4 -2 -3
right_child=1 6 4 -5 -6 -7 -8
leaf_value=0.00064520613238057834 -0.0010439780152598328 0.00024607808645292679 0.0003616315898741098 -0.00011919532986174037 3.1563638904590613e-05 -0.00022590731386360003 0.0014329928521066904
leaf_weight=8067 3503 12633 62976 85429 41639 89462 1150
leaf_count=8067 3503 12633 62976 85429 41639 89462 1150
internal_value=1.78829e-12 -0.000179025 9.64637e-05 -5.32414e-05 0.000230258 -0.000256733 0.00034511
internal_weight=304859 106748 198111 93496 104615 92965 13783
internal_count=304859 106748 198111 93496 104615 92965 13783
is_linear=0
shrinkage=0.03


Tree=39
num_leaves=8
num_cat=0
split_feature=0 0 6 6 0 6 8
split_gain=11.2364 5.4932 4.90204 4.66825 8.79311 3.68322 3.51916
threshold=0.0085055040375848021 0.079192540435361766 0.73123732926985718 0.18681119916079472 -0.085666804839165542 2.4909737197486872 0.05731572696003346
decision_type=2 2 2 2 2 2 2
left_child=3 6 -3 4 -1 -5 -2
right_child=1 2 -4 5 -6 -7 -8
leaf_value=-0.007501985977022823 -0.00014525160915054153 0.0033377617293894324 0.00035333938440682005 0.00016385539619065295 -0.00061558688176171822 -0.00099935399159434908 -0.0005079210931256986
leaf_weight=176 53295 544 5537 195678 3220 2481 43928
leaf_count=176 53295 544 5537 195678 3220 2481 43928
internal_value=-2.12672e-13 -0.000254404 0.000620323 0.000130391 -0.000972479 0.000149292 -0.000309116
internal_weight=304859 103304 6081 201555 3396 198159 97223
internal_count=304859 103304 6081 201555 3396 198159 97223
is_linear=0
shrinkage=0.03


Tree=40
num_leaves=8
num_cat=0
split_feature=0 1 1 8 8 8 7
split_gain=10.6141 5.62457 5.4282 4.81922 4.73602 3.11425 1.64589
threshold=0.011456791570288002 0.13628412578505086 -0.015227072278713399 -0.30291624991629357 0.062151865416739407 0.36776439394668026 0.10204661960631072
decision_type=2 2 2 2 2 2 2
left_child=2 4 3 -1 -2 -4 -3
right_child=1 6 5 -5 -6 -7 -8
leaf_value=0.00038951299515070404 -0.00017114277895644058 0.00043190620801332713 0.00029703001890485614 -0.00015584941121740987 -0.00064638702471148221 -0.00025038716450882808 -0.00077769727796953762
leaf_weight=17951 45700 11202 108785 77727 32148 10233 1113
leaf_count=17951 45700 11202 108785 77727 32148 10233 1113
internal_value=1.78919e-12 -0.000273157 0.000114714 -5.35291e-05 -0.000367399 0.000249964 0.000322585
internal_weight=304859 90163 214696 95678 77848 119018 12315
internal_count=304859 90163 214696 95678 77848 119018 12315
is_linear=0
shrinkage=0.03


Tree=41
num_leaves=8
num_cat=0
split_feature=2 5 6 5 7 6 5
split_gain=5.09867 5.48089 4.34772 2.65929 1.74978 1.7014 1.49227
threshold=0.012328410101755947 7.9229100135605348 0.18681119916079472 3.0151547359253681 0.0029340850291592001 0.36882234064030789 27.03593380984853
decision_type=2 2 2 2 2 2 2
left_child=1 2 -1 5 -3 -2 -5
right_child=3 4 -4 6 -6 -7 -8
leaf_value=-0.00110883615389363 -0.0011465006425003803 -0.00017229530887138831 6.3261817575455283e-05 9.032093917329496e-06 0.00076778620388867093 -0.00029536391002160629 -0.00055945168237895768
leaf_weight=2894 2218 2064 180113 55069 13040 44966 4495
leaf_count=2894 2218 2064 180113 55069 13040 44966 4495
internal_value=-1.42577e-12 9.00587e-05 4.47267e-05 -0.000167138 0.000639322 -0.000335374 -3.38686e-05
internal_weight=304859 198111 183007 106748 15104 47184 59564
internal_count=304859 198111 183007 106748 15104 47184 59564
is_linear=0
shrinkage=0.03


Tree=42
num_leaves=8
num_cat=0
split_feature=0 0 6 5 2 3 0
split_gain=9.93011 4.63875 4.62498 3.99438 10.793 5.91185 3.28352
threshold=0.0042938099800280509 0.079192540435361766 0.73123732926985718 -30.089870018365367 -0.14517893417668179 -0.19793420694597494 0.017008756609477555
decision_type=2 2 2 2 2 2 2
left_child=3 6 -3 4 -1 -5 -2
right_child=1 2 -4 5 -6 -7 -8
leaf_value=-0.0061038750664611317 -7.7183427301122175e-05 0.003243504478176713 0.00034464676539288616 0.0010684188065425886 -0.0003295715701186035 0.00013442819032636645 -0.00039218626224611213
leaf_weight=309 55772 544 5537 6330 5095 167363 63909
leaf_count=309 55772 544 5537 6330 5095 167363 63909
internal_value=4.43647e-12 -0.000204323 0.000603976 0.000143476 -0.000659745 0.000168466 -0.000245393
internal_weight=304859 125762 6081 179097 5404 173693 119681
internal_count=304859 125762 6081 179097 5404 173693 119681
is_linear=0
shrinkage=0.03


Tree=43
num_leaves=8
num_cat=0
split_feature=9 0 3 0 6 2 3
split_gain=9.98711 9.93064 6.50879 4.90821 4.07348 2.74698 2.61118
threshold=0.054319957434630757 0.0042938099800280509 -0.19793420694597494 0.12588616439868935 2.8370718706990594 0.091872096113815832 0.11595245284732349
decision_type=2 2 2 2 2 2 2
left_child=1 6 4 -4 -2 -3 -1
right_child=2 5 3 -5 -6 -7 -8
leaf_value=0.00021634703307333585 0.00054337743046007768 -0.00019288803736702801 -0.00049785849571436821 0.0020345537448308582 -0.0039122115730840174 0.00030279994058524513 0.00075127055539999841
leaf_weight=132177 8062 91375 52294 698 189 11307 8757
leaf_count=132177 8062 91375 52294 698 189 11307 8757
internal_value=-8.0687e-13 8.60928e-05 -0.000342465 -0.000464502 0.000441316 -0.000138305 0.000249585
internal_weight=304859 243616 61243 52992 8251 102682 140934
internal_count=304859 243616 61243 52992 8251 102682 140934
is_linear=0
shrinkage=0.03


Tree=44
num_leaves=8
num_cat=0
split_feature=9 5 3 1 1 1 9
split_gain=9.48906 7.4659 11.1955 6.30054 6.07957 6.05557 1.40257
threshold=0.045525620089622361 -31.405229524629842 -0.16462869477194977 -0.15157715861522658 0.12696836285495072 0.031948623390603809 0.032528634852135557
decision_type=2 2 2 2 2 2 2
left_child=4 3 -3 -2 5 -1 -6
right_child=1 2 -4 -5 6 -7 -8
leaf_value=0.00018880237927706544 -0.0057223751649209424 0.0006089615076671081 -0.00033789021912123876 -0.00089826055595444308 0.0026139934417399734 -0.00018587539919077051 0.00095708271536611286
leaf_weight=147099 401 12935 85707 621 508 52742 4846
leaf_count=147099 401 12935 85707 621 508 52742 4846
internal_value=7.78375e-13 -0.000240158 -0.000213729 -0.00279109 0.000116646 8.99175e-05 0.00111429
internal_weight=304859 99664 98642 1022 205195 199841 5354
internal_count=304859 99664 98642 1022 205195 199841 5354
is_linear=0
shrinkage=0.03


Tree=45
num_leaves=8
num_cat=0
split_feature=0 0 6 0 6 6 6
split_gain=8.80302 5.32593 4.55912 11.7982 4.27029 3.58124 1.76822
threshold=0.012909218676975802 0.063751893902896012 0.27474063399346355 -0.085666804839165542 0.42789765583504907 1.943059242309424 0.55136684214397813
decision_type=2 2 2 2 2 2 2
left_child=2 6 3 -1 -3 -4 -2
right_child=1 4 5 -5 -6 -7 -8
leaf_value=-0.00696749797318175 -0.00077959616167344223 0.0040645420653579222 0.00015096253949506294 -0.00038110190958519916 0.000264305480367402 -0.00051845100312859738 -0.00030173203640248495
leaf_weight=252 7797 273 204364 8534 10561 7455 65623
leaf_count=252 7797 273 204364 8534 10561 7455 65623
internal_value=1.54825e-12 -0.000260856 9.96266e-05 -0.000570013 0.000360066 0.000127402 -0.00035248
internal_weight=304859 84254 220605 8786 10834 211819 73420
internal_count=304859 84254 220605 8786 10834 211819 73420
is_linear=0
shrinkage=0.03


Tree=46
num_leaves=8
num_cat=0
split_feature=9 0 1 1 0 1 2
split_gain=9.03296 8.87086 5.92479 5.2858 4.61204 4.0698 3.41966
threshold=0.054319957434630757 0.0042938099800280509 -0.24055793865099204 0.13628412578505086 0.12588616439868935 -0.012616640065556147 -0.06898515561873543
decision_type=2 2 2 2 2 2 2
left_child=1 5 6 -3 -4 -1 -2
right_child=2 3 4 -5 -6 -7 -8
leaf_value=6.4479180799998552e-05 0.0014719191422701697 -0.00019063351291457472 -0.00041500034874691812 0.00063652564749671963 0.0019480086568431313 0.00038757174164776801 -0.0028749709364307239
leaf_weight=65942 2185 95181 58129 7501 753 74992 176
leaf_count=65942 2185 95181 58129 7501 753 74992 176
internal_value=1.20205e-12 8.1877e-05 -0.000325695 -0.000130209 -0.000384782 0.000236399 0.00114788
internal_weight=304859 243616 61243 102682 58882 140934 2361
internal_count=304859 243616 61243 102682 58882 140934 2361
is_linear=0
shrinkage=0.03


Tree=47
num_leaves=8
num_cat=0
split_feature=9 5 1 1 1 1 9
split_gain=8.5244 7.90111 10.6383 4.73123 4.20051 5.03497 1.77825
threshold=0.048945554418539754 -33.28458724112452 -0.24055793865099204 -0.24055793865099204 0.12696836285495072 0.031948623390603809 0.032528634852135557
decision_type=2 2 2 2 2 2 2
left_child=4 3 -3 -2 5 -1 -6
right_child=1 2 -4 -5 6 -7 -8
leaf_value=0.00016114362134615255 -0.0072985970555568356 0.001837975065923368 -0.00028845948479075997 -0.0018745045207530472 0.0025271417433424628 -0.00016676395637810079 0.00068460926576448158
leaf_weight=157335 201 2175 80014 517 508 57563 6546
leaf_count=157335 201 2175 80014 517 508 57563 6546
internal_value=3.20009e-14 -0.00025956 -0.000232187 -0.00339295 9.69549e-05 7.33097e-05 0.000817301
internal_weight=304859 82907 82189 718 221952 214898 7054
internal_count=304859 82907 82189 718 221952 214898 7054
is_linear=0
shrinkage=0.03


Tree=48
num_leaves=8
num_cat=0
split_feature=9 7 9 5 9 3 7
split_gain=8.10582 9.81652 7.85271 7.31852 3.53939 3.70868 3.33306
threshold=0.054319957434630757 0.017876147054246554 0.07097124757484137 -30.089870018365367 0.028459141315656453 -0.1595429523253542 0.00094625090772960008
decision_type=2 2 2 2 2 2 2
left_child=4 2 -2 -3 6 -6 -1
right_child=1 3 -4 -5 5 -7 -8
leaf_value=-0.00041096060711366851 -0.00056038539920432969 -0.0032181306676124575 -0.0020731696235715773 -2.5671082209162975e-05 0.00092492630021948367 -3.2286117794042385e-05 0.00028104415518235074
leaf_weight=6781 12953 656 4055 43579 3733 150904 82198
leaf_count=6781 12953 656 4055 43579 3733 150904 82198
internal_value=1.44639e-12 -0.000308528 -0.000921059 -7.30149e-05 7.75614e-05 -9.17862e-06 0.000228307
internal_weight=304859 61243 17008 44235 243616 154637 88979
internal_count=304859 61243 17008 44235 243616 154637 88979
is_linear=0
shrinkage=0.03


Tree=49
num_leaves=8
num_cat=0
split_feature=9 7 9 3 6 4 3
split_gain=7.67502 7.66529 9.36751 5.5726 2.52999 2.26648 1.96169
threshold=0.045525620089622361 0.017038485676202354 0.07097124757484137 -0.19793420694597494 1.7407139775577518 60.769173484632837 0.11340180396842499
decision_type=2 2 2 2 2 2 2
left_child=4 2 -2 -3 5 -1 -6
right_child=1 3 -4 -5 6 -7 -8
leaf_value=0.00019516166025298099 -0.00040630514777288706 0.00072862207634980783 -0.0020000796992182728 -0.00012727287865417849 -0.00035015609514797182 -6.2337512577461605e-05 0.00037598953117532125
leaf_weight=145066 30522 7769 3724 57649 16910 39044 4175
leaf_count=145066 30522 7769 3724 57649 16910 39044 4175
internal_value=1.63454e-12 -0.000215986 -0.000579616 -2.56273e-05 0.000104905 0.000140554 -0.000206373
internal_weight=304859 99664 34246 65418 205195 184110 21085
internal_count=304859 99664 34246 65418 205195 184110 21085
is_linear=0
shrinkage=0.03


Tree=50
num_leaves=8
num_cat=0
split_feature=9 5 3 9 9 3 5
split_gain=7.33272 7.99942 9.72343 3.98591 3.24956 3.48028 2.03228
threshold=0.054319957434630757 -30.089870018365367 -0.21774767885403565 0.092280167064865512 0.028459141315656453 -0.14645874718110838 -9.7246609514240046
decision_type=2 2 2 2 2 2 2
left_child=4 3 -3 -2 6 -6 -1
right_child=1 2 -4 -5 5 -7 -8
leaf_value=4.3657644306551639e-05 -0.0020297930732684336 0.00089952094541082244 -0.00037927345372908811 -0.0068680821715331655 0.00074738536733074421 -3.6109979803818167e-05 0.00033597443888577831
leaf_weight=35846 607 5934 54497 205 5283 149354 53133
leaf_count=35846 607 5934 54497 205 5283 149354 53133
internal_value=-1.99215e-12 -0.000293447 -0.000253703 -0.00325128 7.377e-05 -9.34274e-06 0.000218212
internal_weight=304859 61243 60431 812 243616 154637 88979
internal_count=304859 61243 60431 812 243616 154637 88979
is_linear=0
shrinkage=0.03


Tree=51
num_leaves=8
num_cat=0
split_feature=0 1 0 6 3 7 7
split_gain=7.79583 5.5193 3.97321 4.24107 3.71976 3.42539 2.08191
threshold=0.0042938099800280509 -0.012616640065556147 0.079192540435361766 0.73123732926985718 -0.1595429523253542 0.036800336320356508 0.00058342543854125013
decision_type=2 2 2 2 2 2 2
left_child=1 4 5 -4 -1 -2 -3
right_child=2 6 3 -5 -6 -7 -8
leaf_value=0.00045276619035274757 -0.00015754208927112705 -0.00078689311756889536 0.0030946352051801915 0.00031869881006933764 -0.00010687822675773211 -0.000637847715019369 0.00032053157472843133
leaf_weight=12318 104355 1556 544 5537 80822 15326 84401
leaf_count=12318 104355 1556 544 5537 80822 15326 84401
internal_value=-1.0032e-12 0.000127126 -0.000181039 0.000567031 -3.28638e-05 -0.000219049 0.000300485
internal_weight=304859 179097 125762 6081 93140 119681 85957
internal_count=304859 179097 125762 6081 93140 119681 85957
is_linear=0
shrinkage=0.03


Tree=52
num_leaves=8
num_cat=0
split_feature=0 9 7 0 5 5 9
split_gain=7.34594 6.76418 8.68243 4.75897 2.90891 2.64839 2.57356
threshold=0.012909218676975802 0.051434809941650908 0.019476123333093353 0.063751893902896012 -5.1438113091827438 31.464350933434826 0.065913347677404116
decision_type=2 2 2 2 2 2 2
left_child=1 4 -3 6 -1 -5 -2
right_child=3 2 -4 5 -6 -7 -8
leaf_value=6.2499364371708762e-05 -0.00027193446808809063 -0.00073905000924808276 8.4325979826364606e-05 0.00047258413180087687 0.00031028347011130889 -0.0014265540663546143 -0.00092050597733761
leaf_weight=89505 67424 18186 31475 10127 81439 707 5996
leaf_count=89505 67424 18186 31475 10127 81439 707 5996
internal_value=7.82922e-13 9.10087e-05 -0.000217197 -0.000238291 0.000180546 0.000348651 -0.000324901
internal_weight=304859 220605 49661 84254 170944 10834 73420
internal_count=304859 220605 49661 84254 170944 10834 73420
is_linear=0
shrinkage=0.03


Tree=53
num_leaves=8
num_cat=0
split_feature=9 7 5 9 9 2 7
split_gain=6.61901 8.60716 7.34164 5.12491 3.15326 4.11886 3.39932
threshold=0.056423868008149962 0.017038485676202354 -30.089870018365367 0.07097124757484137 0.024542851108688653 -0.00072449978879115986 0.00094625090772960008
decision_type=2 2 2 2 2 2 2
left_child=4 3 -3 -2 6 -6 -1
right_child=1 2 -4 -5 5 -7 -8
leaf_value=-0.00040664256316402792 -0.00059638729912391746 -0.0033294452564179241 -3.7338324102431363e-05 -0.0019117144104461485 0.00014775324588513387 -0.00013122486415513597 0.00033138301841936519
leaf_weight=6271 9384 619 40405 3724 93215 97396 53845
leaf_count=6271 9384 619 40405 3724 93215 97396 53845
internal_value=1.90434e-12 -0.000300844 -8.7012e-05 -0.000970073 6.49523e-05 5.20454e-06 0.000254396
internal_weight=304859 54132 41024 13108 250727 190611 60116
internal_count=304859 54132 41024 13108 250727 190611 60116
is_linear=0
shrinkage=0.03


Tree=54
num_leaves=8
num_cat=0
split_feature=9 8 3 9 2 9 3
split_gain=6.23518 7.58149 7.69956 6.81785 2.20543 3.96497 3.24335
threshold=0.045525620089622361 0.016684519617774052 -0.19793420694597494 0.07097124757484137 -0.013633727880335568 0.022452518074380253 0.08614853266193756
decision_type=2 2 2 2 2 2 2
left_child=4 2 -2 -3 6 -6 -1
right_child=1 3 -4 -5 5 -7 -8
leaf_value=0.00017994635291397842 0.00093711582243879998 -0.00029940512112773369 -9.6610233804472417e-05 -0.0012288478252709656 0.00032187305538414836 -6.5551397102002563e-05 0.0010512183194616772
leaf_weight=66577 7566 37981 45380 8737 30847 103690 4081
leaf_count=66577 7566 37981 45380 8737 30847 103690 4081
internal_value=2.03762e-12 -0.000194675 5.11095e-05 -0.000473226 9.45545e-05 2.32783e-05 0.000230268
internal_weight=304859 99664 52946 46718 205195 134537 70658
internal_count=304859 99664 52946 46718 205195 134537 70658
is_linear=0
shrinkage=0.03


Tree=55
num_leaves=8
num_cat=0
split_feature=0 9 5 0 8 5 5
split_gain=6.84102 6.10693 7.91502 3.72191 3.42734 3.25052 2.32426
threshold=0.0042938099800280509 0.043545188046800409 -33.28458724112452 0.08571537671216177 0.062151865416739407 35.471551503003091 -7.8506028152042893
decision_type=2 2 2 2 2 2 2
left_child=1 6 -3 4 -2 -5 -1
right_child=3 2 -4 5 -6 -7 -8
leaf_value=0.00010990732002840784 -6.2845279694571118e-05 -0.003082480343657522 -7.6196161845961587e-05 0.00083024438932621379 -0.00038524580325827542 -0.0025990570027083723 0.00038091332616448857
leaf_weight=54613 68605 798 64160 4595 52299 263 59526
leaf_count=54613 68605 798 64160 4595 52299 263 59526
internal_value=1.19037e-12 0.000119087 -0.000113128 -0.000169591 -0.000202305 0.000644591 0.000251243
internal_weight=304859 179097 64958 125762 120904 4858 114139
internal_count=304859 179097 64958 125762 120904 4858 114139
is_linear=0
shrinkage=0.03


Tree=56
num_leaves=8
num_cat=0
split_feature=0 9 4 4 1 4 9
split_gain=6.43672 5.79682 4.66288 5.31916 4.04571 2.95545 1.66227
threshold=0.0042938099800280509 0.037678690202699656 73.452280830427867 61.315097838428919 0.069930543702128908 44.560518074142841 0.046699429660145959
decision_type=2 2 2 2 2 2 2
left_child=1 5 3 -2 -3 -1 -4
right_child=2 4 6 -5 -6 -7 -8
leaf_value=6.009942834949591e-05 -8.4701283564176983e-05 -0.00012687902204487674 0.00056883875210127991 -0.00052566674159451772 0.00062937796352048527 0.00040676329122692873 -0.00012720880869184417
leaf_weight=35376 74854 77659 9691 36685 6935 59127 4532
leaf_count=35376 74854 77659 9691 36685 6935 59127 4532
internal_value=1.41709e-12 0.000115514 -0.000164503 -0.000229734 -6.48812e-05 0.000276994 0.000347051
internal_weight=304859 179097 125762 111539 84594 94503 14223
internal_count=304859 179097 125762 111539 84594 94503 14223
is_linear=0
shrinkage=0.03


Tree=57
num_leaves=8
num_cat=0
split_feature=9 7 1 9 1 4 9
split_gain=5.70375 8.08166 6.12581 4.77434 2.98858 4.5403 2.63585
threshold=0.056423868008149962 0.017038485676202354 -0.24055793865099204 0.07097124757484137 0.13628412578505086 60.586225672661662 0.044853920568694805
decision_type=2 2 2 2 2 2 2
left_child=4 3 -3 -2 5 -1 -6
right_child=1 2 -4 -5 6 -7 -8
leaf_value=0.00011081971564062595 -0.00056707027858341873 0.0014999058865968881 -0.00015756032768135848 -0.0018366126461405831 0.0011798206556687129 -0.00020005368272079752 0.00012887827102393246
leaf_weight=187472 9384 2116 38908 3724 3947 54596 4712
leaf_count=187472 9384 2116 38908 3724 3947 54596 4712
internal_value=1.57129e-13 -0.000279271 -7.20689e-05 -0.000927749 6.02946e-05 4.07054e-05 0.000607925
internal_weight=304859 54132 41024 13108 250727 242068 8659
internal_count=304859 54132 41024 13108 250727 242068 8659
is_linear=0
shrinkage=0.03


Tree=58
num_leaves=8
num_cat=0
split_feature=8 1 1 9 7 7 9
split_gain=5.70564 9.61039 6.12947 5.31306 4.56857 4.04343 3.68974
threshold=0.22873858278822959 -0.14472955749670233 -0.24055793865099204 0.052029465161586706 0.017243229072470102 0.029183489042609406 0.067914905307446913
decision_type=2 2 2 2 2 2 2
left_child=2 5 4 -3 -1 -2 -4
right_child=1 3 6 -5 -6 -7 -8
leaf_value=-0.0023254986263280693 -0.0071653160668514746 -7.327472907620474e-05 7.8738804556061439e-05 -0.00079587696873398067 0.0021309550778786084 -0.0021330523116917738 -0.00034678068220042992
leaf_weight=232 230 39128 231085 11956 1924 383 19921
leaf_count=232 230 39128 231085 11956 1924 383 19921
internal_value=6.59393e-13 -0.000287204 5.86485e-05 -0.000242397 0.00165141 -0.00402118 4.49676e-05
internal_weight=304859 51697 253162 51084 2156 613 251006
internal_count=304859 51697 253162 51084 2156 613 251006
is_linear=0
shrinkage=0.03


Tree=59
num_leaves=8
num_cat=0
split_feature=2 5 1 3 3 5 7
split_gain=3.08511 5.83038 3.43856 2.88361 2.7645 2.19107 1.92471
threshold=0.012328410101755947 7.9229100135605348 0.13115864557934462 -0.19793420694597494 0.34771991430777904 1.8480898101844139 0.0029340850291592001
decision_type=2 2 2 2 2 2 2
left_child=1 3 4 -1 -2 -4 -3
right_child=2 6 5 -5 -6 -7 -8
leaf_value=0.00057531687732613706 -0.00018403739548850985 -0.00021466123835421586 -0.00054347946952231689 -2.3905964070697098e-06 -0.002203778347064186 0.00046113937728396509 0.00077129141853612591
leaf_weight=8138 91648 2064 2328 174869 614 12158 13040
leaf_count=8138 91648 2064 2328 174869 614 12158 13040
internal_value=2.08169e-13 7.0054e-05 -0.000130011 2.3299e-05 -0.000197479 0.00029969 0.000636558
internal_weight=304859 198111 106748 183007 92262 14486 15104
internal_count=304859 198111 106748 183007 92262 14486 15104
is_linear=0
shrinkage=0.03


Tree=60
num_leaves=8
num_cat=0
split_feature=8 9 9 5 9 5 9
split_gain=5.40857 8.58149 4.42308 5.97993 4.08451 3.57203 3.16096
threshold=0.22873858278822959 0.08680714618361611 0.10246094818920361 -23.768182546798474 0.052029465161586706 5.6316827748049549 0.028459141315656453
decision_type=2 2 2 2 2 2 2
left_child=2 4 6 -4 -2 -3 -1
right_child=1 5 3 -5 -6 -7 -8
leaf_value=0.00021121325480681028 -7.2797899842581105e-05 -0.0038643592232282401 -0.00483764517121017 0.0019206191470346871 -0.00072110877077056763 -0.00057531348203593107 -2.25021580695293e-05
leaf_weight=73708 39139 833 126 1818 11263 462 177510
leaf_count=73708 39139 833 126 1818 11263 462 177510
internal_value=-1.06496e-12 -0.000279627 5.71013e-05 0.00148258 -0.000217672 -0.00269097 4.60705e-05
internal_weight=304859 51697 253162 1944 50402 1295 251218
internal_count=304859 51697 253162 1944 50402 1295 251218
is_linear=0
shrinkage=0.03


Tree=61
num_leaves=8
num_cat=0
split_feature=0 9 5 0 6 8 0
split_gain=5.86284 5.13335 6.64993 3.4888 4.01056 3.16671 1.84579
threshold=0.0042938099800280509 0.037678690202699656 -31.405229524629842 0.079192540435361766 0.73123732926985718 0.062151865416739407 -0.007310922396385749
decision_type=2 2 2 2 2 2 2
left_child=1 6 -3 5 -5 -2 -1
right_child=3 2 -4 4 -6 -7 -8
leaf_value=0.00041178439274319024 -5.8539376871974637e-05 -0.0021648859771590838 -2.590980106070492e-05 0.0030019445692318295 0.00030249873112100082 -0.00037022825887691291 0.0001446858598660951
leaf_weight=41579 68199 1329 83265 544 5537 51482 52924
leaf_count=41579 68199 1329 83265 544 5537 51482 52924
internal_value=-6.64096e-13 0.000110244 -5.95138e-05 -0.000156998 0.000543988 -0.000192616 0.000262203
internal_weight=304859 179097 84594 125762 6081 119681 94503
internal_count=304859 179097 84594 125762 6081 119681 94503
is_linear=0
shrinkage=0.03


Tree=62
num_leaves=8
num_cat=0
split_feature=8 1 1 7 7 7 1
split_gain=4.99715 8.73083 5.63589 4.31552 3.84279 3.57352 2.65995
threshold=0.22873858278822959 -0.14472955749670233 -0.24055793865099204 0.018091974530975503 0.029183489042609406 0.12946330010094917 -0.079657318482070291
decision_type=2 2 2 2 2 2 2
left_child=2 4 3 -1 -2 -3 -4
right_child=1 5 6 -5 -6 -7 -8
leaf_value=-0.0020662851730956795 -0.0068929230009772526 -0.00019725751666370027 -0.00022971220725323622 0.0020759365493858359 -0.0019871033437532742 -0.0024108830934838582 7.689925714190282e-05
leaf_weight=257 230 50419 28760 1899 383 665 222246
leaf_count=257 230 50419 28760 1899 383 665 222246
internal_value=1.90002e-12 -0.000268781 5.48866e-05 0.00158217 -0.00382779 -0.000226074 4.1768e-05
internal_weight=304859 51697 253162 2156 613 51084 251006
internal_count=304859 51697 253162 2156 613 51084 251006
is_linear=0
shrinkage=0.03


Tree=63
num_leaves=8
num_cat=0
split_feature=0 0 6 0 6 5 5
split_gain=5.59193 4.86343 4.36554 10.4973 3.79665 3.43624 2.59863
threshold=0.017008756609477555 0.063751893902896012 0.27474063399346355 -0.085666804839165542 0.42789765583504907 7.9229100135605348 -18.311569221035246
decision_type=2 2 2 2 2 2 2
left_child=2 6 3 -1 -3 -4 -2
right_child=1 4 5 -5 -6 -7 -8
leaf_value=-0.0066108472642372367 0.00082491643910137969 0.0038419905783746689 5.0273791455984014e-05 -0.00040162123007227298 0.00025869732170227328 0.00039478707607739413 -0.00037625820289421817
leaf_weight=252 1668 273 195681 8877 10561 30059 57488
leaf_count=252 1668 273 195681 8877 10561 30059 57488
internal_value=7.56421e-13 -0.000235368 7.01387e-05 -0.000573023 0.000348991 9.61484e-05 -0.000342389
internal_weight=304859 69990 234869 9129 10834 225740 59156
internal_count=304859 69990 234869 9129 10834 225740 59156
is_linear=0
shrinkage=0.03


Tree=64
num_leaves=8
num_cat=0
split_feature=0 5 8 2 0 5 8
split_gain=5.33074 3.98919 4.15392 3.60301 3.2108 3.06895 2.81009
threshold=0.0042938099800280509 7.9229100135605348 0.24555642919386633 0.039979388455405385 0.08571537671216177 35.471551503003091 0.062151865416739407
decision_type=2 2 2 2 2 2 2
left_child=1 2 -1 -3 6 -6 -2
right_child=4 3 -4 -5 5 -7 -8
leaf_value=0.00010892467136764896 -5.381114362760058e-05 0.00069500580285250275 -0.00037274831664463001 -0.00026773853385521926 0.00078690424894581053 -0.0025452427457338164 -0.00034573990915322207
leaf_weight=139802 68605 16653 18213 4429 4595 263 52299
leaf_count=139802 68605 16653 18213 4429 4595 263 52299
internal_value=2.12673e-12 0.000105123 5.34065e-05 0.000492748 -0.000149705 0.00060651 -0.00018009
internal_weight=304859 179097 158015 21082 125762 4858 120904
internal_count=304859 179097 158015 21082 125762 4858 120904
is_linear=0
shrinkage=0.03


Tree=65
num_leaves=8
num_cat=0
split_feature=9 7 1 9 1 4 9
split_gain=4.95054 7.60577 4.97706 4.39236 2.87352 4.00485 2.78759
threshold=0.056423868008149962 0.017038485676202354 -0.24055793865099204 0.07097124757484137 0.13115864557934462 60.769173484632837 0.044853920568694805
decision_type=2 2 2 2 2 2 2
left_child=4 3 -3 -2 5 -1 -6
right_child=1 2 -4 -5 6 -7 -8
leaf_value=0.00010059554938390371 -0.00054332435412706402 0.0013577669844900486 -0.00013622938020301729 -0.0017610230511371379 0.0011108221441747232 -0.00019521472907116906 8.5152264494360211e-05
leaf_weight=188436 9384 2116 38908 3724 4488 52714 5089
leaf_count=188436 9384 2116 38908 3724 4488 52714 5089
internal_value=1.7039e-14 -0.000260179 -5.91697e-05 -0.000889274 5.61726e-05 3.59331e-05 0.000565804
internal_weight=304859 54132 41024 13108 250727 241150 9577
internal_count=304859 54132 41024 13108 250727 241150 9577
is_linear=0
shrinkage=0.03


Tree=66
num_leaves=8
num_cat=0
split_feature=8 4 4 3 4 8 6
split_gain=4.50345 6.57711 4.14384 3.78402 4.48889 4.39375 2.78819
threshold=0.22873858278822959 19.058546176058986 78.452312065316121 -0.16462869477194977 40.200651944557443 -0.22611238635055106 0.56468574493602686
decision_type=2 2 2 2 2 2 2
left_child=3 6 -3 5 -5 -1 -2
right_child=1 2 -4 4 -6 -7 -8
leaf_value=0.00091039657254649454 -0.0085480945491387197 -0.00031415722340225966 0.00062662378070607691 -0.00025919728626143087 8.3177991631135786e-05 -0.00015815757909401609 -0.002511362650112699
leaf_weight=9390 108 46768 4631 41796 196489 5487 190
leaf_count=9390 108 46768 4631 41796 196489 5487 190
internal_value=1.28025e-12 -0.000255159 -0.000229394 5.21048e-05 2.31242e-05 0.000516288 -0.00469917
internal_weight=304859 51697 51399 253162 238285 14877 298
internal_count=304859 51697 51399 253162 238285 14877 298
is_linear=0
shrinkage=0.03


Tree=67
num_leaves=8
num_cat=0
split_feature=9 5 1 1 1 4 9
split_gain=4.70158 6.76649 8.66988 3.9787 2.5302 3.75235 2.74526
threshold=0.056797773711365511 -30.089870018365367 -0.24055793865099204 -0.13840146744430731 0.13115864557934462 60.769173484632837 0.044853920568694805
decision_type=2 2 2 2 2 2 2
left_child=4 3 -3 -2 5 -1 -6
right_child=1 2 -4 -5 6 -7 -8
leaf_value=9.7314065350157994e-05 -0.0049986699685469942 0.0016576496382507315 -0.00029706589775246531 -0.00044773956694755434 0.001072930621491704 -0.00018857211051896642 6.20184832644106e-05
leaf_weight=189370 426 2129 50062 291 4488 52852 5241
leaf_count=189370 426 2129 50062 291 4488 52852 5241
internal_value=1.16849e-12 -0.000257093 -0.000217328 -0.00315164 5.39879e-05 3.49347e-05 0.000528354
internal_weight=304859 52908 52191 717 251951 242222 9729
internal_count=304859 52908 52191 717 251951 242222 9729
is_linear=0
shrinkage=0.03


Tree=68
num_leaves=8
num_cat=0
split_feature=0 9 5 0 1 5 5
split_gain=5.07225 4.38603 6.65635 4.32054 3.99987 2.44841 2.4297
threshold=0.017008756609477555 0.050572600651289108 -33.28458724112452 0.063751893902896012 0.086566520830787655 27.03593380984853 -18.311569221035246
decision_type=2 2 2 2 2 2 2
left_child=1 4 -3 6 -1 -5 -2
right_child=3 2 -4 5 -6 -7 -8
leaf_value=0.00011508481660578985 0.00080369181257066889 -0.0032527743616678792 -0.0001338692408561275 0.00049015012132368272 0.0010125394811488933 -0.00091711342186615984 -0.00035778559358221051
leaf_weight=176003 1668 623 53657 9575 4586 1259 57488
leaf_count=176003 1668 623 53657 9575 4586 1259 57488
internal_value=3.50129e-13 6.68001e-05 -0.000169667 -0.000224165 0.000137875 0.000326615 -0.000325036
internal_weight=304859 234869 54280 69990 180589 10834 59156
internal_count=304859 234869 54280 69990 180589 10834 59156
is_linear=0
shrinkage=0.03


Tree=69
num_leaves=8
num_cat=0
split_feature=0 9 7 4 4 4 9
split_gain=4.87282 4.45057 6.48337 4.07624 4.37649 2.78473 1.44414
threshold=0.0042938099800280509 0.037678690202699656 0.016635945790382203 73.452280830427867 61.315097838428919 44.560518074142841 0.046699429660145959
decision_type=2 2 2 2 2 2 2
left_child=1 5 -3 4 -2 -1 -5
right_child=3 2 -4 6 -6 -7 -8
leaf_value=3.1461187424101774e-05 -7.2565115844521727e-05 -0.00035001136040758855 0.00017829759045355571 0.00054188682621124362 -0.00047255227980264633 0.0003679636015519181 -0.00010688455041606552
leaf_weight=35376 74854 37766 46828 9691 36685 59127 4532
leaf_count=35376 74854 37766 46828 9691 36685 59127 4532
internal_value=8.14222e-13 0.000100506 -5.75597e-05 -0.00014313 -0.00020412 0.000241998 0.000335163
internal_weight=304859 179097 84594 125762 111539 94503 14223
internal_count=304859 179097 84594 125762 111539 94503 14223
is_linear=0
shrinkage=0.03


Tree=70
num_leaves=8
num_cat=0
split_feature=9 8 9 1 7 9 2
split_gain=4.27395 5.64713 7.15449 6.12779 2.98003 2.18321 1.47002
threshold=0.028916235597110155 0.05731572696003346 0.07097124757484137 -0.27767249293845314 0.00094625090772960008 0.018787094864651653 -0.033325981871924475
decision_type=2 2 2 2 2 2 2
left_child=4 3 -3 -2 6 -6 -1
right_child=1 2 -4 -5 5 -7 -8
leaf_value=-0.0018821083871145131 0.0024121308478132148 -0.00017709058200664711 -0.0011424044621075402 3.4282758520005908e-05 0.00049758524393652868 0.00013613180295529126 -0.00029945746710763208
leaf_weight=577 983 77765 7584 125985 19455 66265 6245
leaf_count=577 983 77765 7584 125985 19455 66265 6245
internal_value=-5.66366e-13 -7.4159e-05 -0.000262867 5.26923e-05 0.000170141 0.000218167 -0.000433317
internal_weight=304859 212317 85349 126968 92542 85720 6822
internal_count=304859 212317 85349 126968 92542 85720 6822
is_linear=0
shrinkage=0.03


Tree=71
num_leaves=8
num_cat=0
split_feature=8 4 4 3 4 8 6
split_gain=4.09736 6.00713 3.78059 3.58817 4.24632 4.02259 2.603
threshold=0.22873858278822959 19.058546176058986 78.452312065316121 -0.16462869477194977 40.200651944557443 -0.22611238635055106 0.56468574493602686
decision_type=2 2 2 2 2 2 2
left_child=3 6 -3 5 -5 -1 -2
right_child=1 2 -4 4 -6 -7 -8
leaf_value=0.00087880666111339058 -0.0082093727148538961 -0.00029972227976092253 0.00059887780082522465 -0.00025310819633718364 7.988802564505088e-05 -0.00014361834202256834 -0.0023765684698928932
leaf_weight=9390 108 46768 4631 41796 196489 5487 190
leaf_count=9390 108 46768 4631 41796 196489 5487 190
internal_value=1.81452e-13 -0.000243383 -0.000218759 4.97001e-05 2.14794e-05 0.000501711 -0.00449047
internal_weight=304859 51697 51399 253162 238285 14877 298
internal_count=304859 51697 51399 253162 238285 14877 298
is_linear=0
shrinkage=0.03


Tree=72
num_leaves=8
num_cat=0
split_feature=5 2 2 1 3 1 1
split_gain=2.95662 3.9463 3.09448 3.05552 2.62118 2.38084 0.847362
threshold=1.8480898101844139 -0.0062332565620603336 0.031287425119854051 0.13628412578505086 -0.11496190959737619 -0.04715010889290374 -0.12778468835917173
decision_type=2 2 2 2 2 2 2
left_child=2 5 4 -3 -1 -2 -4
right_child=1 3 6 -5 -6 -7 -8
leaf_value=0.00024486339196336357 3.0683585982431121e-05 -4.5775018685724803e-05 -0.0017043245010079004 0.00048046659644774301 -7.4845926247307145e-05 0.00067862609443091501 -0.00037865174673099142
leaf_weight=27214 7495 68949 443 11601 151919 15998 21240
leaf_count=27214 7495 68949 443 11601 151919 15998 21240
internal_value=5.98591e-13 0.000129796 -6.72476e-05 3.00155e-05 -2.62755e-05 0.000471912 -0.000405736
internal_weight=304859 104043 200816 80550 179133 23493 21683
internal_count=304859 104043 200816 80550 179133 23493 21683
is_linear=0
shrinkage=0.03


Tree=73
num_leaves=8
num_cat=0
split_feature=9 8 9 4 8 9 9
split_gain=4.18446 6.48487 5.14679 4.05992 3.05767 2.31449 1.78631
threshold=0.057189665341604655 0.016684519617774052 0.10246094818920361 19.058546176058986 0.70525952375346856 0.024542851108688653 0.038733528191032755
decision_type=2 2 2 2 2 2 2
left_child=4 2 -2 -3 5 -1 -6
right_child=1 3 -4 -5 6 -7 -8
leaf_value=0.00022045549189533421 -3.9599772541768782e-05 -0.0042491945713744872 0.0017434604391960715 -0.00057560586802863235 -0.00090881530749628223 6.4588303889465742e-06 -0.0038935062648809472
leaf_weight=59558 27019 274 1540 22875 838 192525 230
leaf_count=59558 27019 274 1540 22875 838 192525 230
internal_value=3.82715e-13 -0.000245925 5.6549e-05 -0.000619088 5.0232e-05 5.70184e-05 -0.00155159
internal_weight=304859 51708 28559 23149 253151 252083 1068
internal_count=304859 51708 28559 23149 253151 252083 1068
is_linear=0
shrinkage=0.03


Tree=74
num_leaves=8
num_cat=0
split_feature=0 4 9 9 4 4 4
split_gain=4.52985 4.07262 5.28061 4.03963 3.74382 4.28249 1.40723
threshold=0.0042938099800280509 44.703343607659264 0.074705165956759564 0.10246094818920361 72.952730470459485 61.315097838428919 87.455020011509248
decision_type=2 2 2 2 2 2 2
left_child=1 3 -3 -1 5 -2 -6
right_child=4 2 -4 -5 6 -7 -8
leaf_value=-9.6612796219281265e-05 -6.9875730535206619e-05 0.00026341213567117279 -0.00090382996198972126 0.0015111473131568553 0.00022008716204806263 -0.00046931150089870666 0.0013076070112642705
leaf_weight=76070 74854 97977 3617 1433 14081 35668 1159
leaf_count=76070 74854 97977 3617 1433 14081 35668 1159
internal_value=-5.15624e-13 9.69046e-05 0.000221855 -6.68859e-05 -0.000138001 -0.000198783 0.000302793
internal_weight=304859 179097 101594 77503 125762 110522 15240
internal_count=304859 179097 101594 77503 125762 110522 15240
is_linear=0
shrinkage=0.03


Tree=75
num_leaves=8
num_cat=0
split_feature=8 2 5 3 5 7 5
split_gain=3.83348 5.02495 3.73497 3.27617 5.13306 2.81852 2.54711
threshold=0.22873858278822959 -0.14517893417668179 10.023167851284468 -0.16462869477194977 -30.089870018365367 0.044612221409837408 1.8480898101844139
decision_type=2 2 2 2 2 2 2
left_child=3 5 -3 4 -1 -2 -5
right_child=1 2 -4 6 -6 -7 -8
leaf_value=-0.0012926388632482412 -0.0051873332506328189 -0.0003828609716132289 0.00016630736816145806 -4.5918196378038068e-05 0.00065516665988590188 -0.00040359212659963131 0.00016464121705632193
leaf_weight=1338 286 34841 16389 162434 13539 181 75851
leaf_count=1338 286 34841 16389 162434 13539 181 75851
internal_value=3.73497e-13 -0.000235416 -0.000207176 4.80731e-05 0.000479986 -0.00333325 2.11072e-05
internal_weight=304859 51697 51230 253162 14877 467 238285
internal_count=304859 51697 51230 253162 14877 467 238285
is_linear=0
shrinkage=0.03


Tree=76
num_leaves=8
num_cat=0
split_feature=0 0 5 8 0 5 5
split_gain=4.35623 3.95159 3.55359 4.43493 3.36387 2.41557 2.28267
threshold=0.017008756609477555 0.063751893902896012 7.9229100135605348 0.24555642919386633 -0.0070921980506234491 27.03593380984853 -18.311569221035246
decision_type=2 2 2 2 2 2 2
left_child=2 6 3 -1 -4 -3 -2
right_child=1 5 4 -5 -6 -7 -8
leaf_value=6.6682303940160186e-05 0.00078983307822683667 0.00048143167649631328 0.00075515225188190838 -0.00037256874554199277 0.00011393272193296348 -0.00091636143938012818 -0.00033595237339092027
leaf_weight=180392 1668 9575 11965 23367 19145 1259 57488
leaf_count=180392 1668 9575 11965 23367 19145 1259 57488
internal_value=-8.73437e-13 -0.000207741 6.19059e-05 1.63092e-05 0.000360548 0.000318997 -0.000304209
internal_weight=304859 69990 234869 203759 31110 10834 59156
internal_count=304859 69990 234869 203759 31110 10834 59156
is_linear=0
shrinkage=0.03


Tree=77
num_leaves=8
num_cat=0
split_feature=0 1 8 9 1 9 8
split_gain=4.1162 4.22051 3.53016 3.02283 2.92218 4.06848 3.55866
threshold=0.0042938099800280509 -0.012616640065556147 -0.3595587435401783 0.08101743131741411 0.13628412578505086 0.071842545184658921 0.062151865416739407
decision_type=2 2 2 2 2 2 2
left_child=1 2 -1 -3 6 -6 -2
right_child=4 3 -4 -5 5 -7 -8
leaf_value=0.0004677971092313148 -4.3166516484600469e-05 0.00026626418421334835 -0.0001137241708981273 -0.0011756832041025043 0.00046830416802984948 -0.001361338157942833 -0.00038714402207933084
leaf_weight=10602 67859 84628 82538 1329 11664 1207 45032
leaf_count=10602 67859 84628 82538 1329 11664 1207 45032
internal_value=5.00868e-13 9.23742e-05 -4.75304e-05 0.00024397 -0.00013155 0.000296726 -0.000180378
internal_weight=304859 179097 93140 85957 125762 12871 112891
internal_count=304859 179097 93140 85957 125762 12871 112891
is_linear=0
shrinkage=0.03


Tree=78
num_leaves=8
num_cat=0
split_feature=9 4 3 3 4 9 3
split_gain=3.97148 3.27012 3.31342 2.99531 2.76804 1.3281 0.741365
threshold=0.056423868008149962 87.455020011509248 -0.16462869477194977 -0.15057930023388505 40.012477654485188 0.039473042426519701 0.45468511618274504
decision_type=2 2 2 2 2 2 2
left_child=3 2 -2 5 -5 -1 -3
right_child=1 6 -4 4 -6 -7 -8
leaf_value=8.4596195299257358e-05 0.00019979100608322873 0.0045970924392381637 -0.00037231035642356822 -0.00022061625142542334 7.4038787445881949e-05 0.0010293053600788763 0.0013126904729309431
leaf_weight=2016 11615 143 42265 33197 211524 3990 109
leaf_count=2016 11615 143 42265 33197 211524 3990 109
internal_value=-3.43286e-13 -0.000233035 -0.000248982 5.03123e-05 3.40681e-05 0.0007122 0.00317646
internal_weight=304859 54132 53880 250727 244721 6006 252
internal_count=304859 54132 53880 250727 244721 6006 252
is_linear=0
shrinkage=0.03


Tree=79
num_leaves=8
num_cat=0
split_feature=8 4 5 5 5 7 2
split_gain=3.41288 5.36074 3.49702 2.17448 2.62701 1.67063 1.24575
threshold=0.22873858278822959 19.058546176058986 11.612553560482647 27.03593380984853 5.6316827748049549 0.040822006094470557 -0.057708189055215658
decision_type=2 2 2 2 2 2 2
left_child=3 6 -3 4 -1 -5 -2
right_child=1 2 -4 5 -6 -7 -8
leaf_value=6.0559114417066078e-06 -0.0056860011828763412 -0.00035444706275418681 0.00019470782764137689 -0.001368783102152246 0.00025308971452767934 0.00088362682021637495 -0.0016427003367690839
leaf_weight=203341 191 36837 14562 1595 47862 364 107
leaf_count=203341 191 36837 14562 1595 47862 364 107
internal_value=-3.50025e-13 -0.000222126 -0.000198864 4.53592e-05 5.31235e-05 -0.000950265 -0.00423421
internal_weight=304859 51697 51399 253162 251203 1959 298
internal_count=304859 51697 51399 253162 251203 1959 298
is_linear=0
shrinkage=0.03


Tree=80
num_leaves=8
num_cat=0
split_feature=9 8 1 1 8 1 8
split_gain=3.89325 4.65609 6.334 5.33006 2.02904 2.44431 1.45576
threshold=0.028916235597110155 0.05731572696003346 -0.14472955749670233 -0.27767249293845314 -0.25209203675009334 0.017530635538741655 -0.60235396941857056
decision_type=2 2 2 2 2 2 2
left_child=4 3 -3 -2 6 -6 -1
right_child=1 2 -4 -5 5 -7 -8
leaf_value=0.0015967297647099747 0.0022449112598630192 -0.0023283423610081688 -0.00021011463424737715 2.7235333424865052e-05 0.00034954963102208961 -5.8315301568353199e-06 -0.00019559498655865988
leaf_weight=419 983 1290 84059 125985 50097 26703 15323
leaf_count=419 983 1290 84059 125985 50097 26703 15323
internal_value=-4.19909e-13 -7.07791e-05 -0.00024213 4.44048e-05 0.000162387 0.000225985 -0.000147889
internal_weight=304859 212317 85349 126968 92542 76800 15742
internal_count=304859 212317 85349 126968 92542 76800 15742
is_linear=0
shrinkage=0.03


Tree=81
num_leaves=8
num_cat=0
split_feature=6 2 1 2 6 4 4
split_gain=3.11655 3.46946 3.13017 3.21829 2.63726 1.91954 1.10046
threshold=0.27474063399346355 -0.14517893417668179 -0.24055793865099204 -0.06898515561873543 1.7909292797478169 71.537385551920622 27.716140332155543
decision_type=2 2 2 2 2 2 2
left_child=1 6 3 -2 -4 -3 -1
right_child=2 5 4 -5 -6 -7 -8
leaf_value=-0.0059319613468621609 0.0014686701186021754 -0.00050800602340170839 3.8825315924828346e-05 -0.0028385849728541084 -0.00026476345266544934 0.0019021188953690846 -0.001805659410310909
leaf_weight=132 2049 9525 264037 169 28536 307 104
leaf_count=132 2049 9525 264037 169 28536 307 104
internal_value=-2.63384e-13 -0.000519032 1.77265e-05 0.00114048 9.2149e-06 -0.000432751 -0.00411359
internal_weight=304859 10068 294791 2218 292573 9832 236
internal_count=304859 10068 294791 2218 292573 9832 236
is_linear=0
shrinkage=0.03


Tree=82
num_leaves=8
num_cat=0
split_feature=0 5 5 2 0 6 7
split_gain=4.00394 5.249 3.63784 2.42395 2.24566 2.1794 1.16594
threshold=-0.007310922396385749 4.4130535334953516 -30.089870018365367 -0.04555073446169209 0.018153109485686953 0.39732078390475439 0.018091974530975503
decision_type=2 2 2 2 2 2 2
left_child=1 2 -1 6 -5 -3 -2
right_child=3 5 -4 4 -6 -7 -8
leaf_value=-0.0009219123890977616 -0.00091816608866343965 -0.00043568386676334005 8.8717317600937003e-05 1.6649067698206764e-05 -0.00019992435915481367 0.00069474767261470277 -0.00020185365693493198
leaf_weight=3336 4374 1681 81975 126686 65301 17665 3841
leaf_count=3336 4374 1681 81975 126686 65301 17665 3841
internal_value=9.25549e-13 0.000150372 4.91977e-05 -7.86078e-05 -5.70146e-05 0.000596523 -0.000583248
internal_weight=304859 104657 85311 200202 191987 19346 8215
internal_count=304859 104657 85311 200202 191987 19346 8215
is_linear=0
shrinkage=0.03


Tree=83
num_leaves=8
num_cat=0
split_feature=0 5 6 2 0 6 3
split_gain=3.76731 4.93878 3.45334 2.2807 2.20214 2.05059 1.87126
threshold=-0.007310922396385749 4.4130535334953516 2.8370718706990594 -0.04555073446169209 0.12588616439868935 0.39732078390475439 -0.21774767885403565
decision_type=2 2 2 2 2 2 2
left_child=1 2 -1 6 -5 -3 -2
right_child=3 5 -4 4 -6 -7 -8
leaf_value=6.7955040281512442e-05 0.0009414524231037562 -0.00042261335110704205 -0.0017528502728435087 -6.3429380630626226e-05 0.0012152112129240507 0.00067390524129578753 -0.0007017683727871659
leaf_weight=84363 680 1681 948 190767 1220 17665 7535
leaf_count=84363 680 1681 948 190767 1220 17665 7535
internal_value=1.07121e-13 0.00014586 4.77217e-05 -7.62495e-05 -5.53041e-05 0.000578627 -0.00056575
internal_weight=304859 104657 85311 200202 191987 19346 8215
internal_count=304859 104657 85311 200202 191987 19346 8215
is_linear=0
shrinkage=0.03


Tree=84
num_leaves=8
num_cat=0
split_feature=6 2 5 2 6 7 5
split_gain=2.89264 3.26657 2.54294 4.34778 2.96919 2.42894 2.10623
threshold=0.27474063399346355 -0.13157558157717514 1.8480898101844139 -0.010255415812097735 2.4909737197486872 0.043608708593372104 21.454864600138482
decision_type=2 2 2 2 2 2 2
left_child=1 5 4 -4 -2 -1 -3
right_child=2 6 3 -5 -6 -7 -8
leaf_value=-0.0056892328908114938 -2.843143525312986e-05 -0.00048149079067397703 0.00053764422967075159 4.1955563411910341e-05 -0.00080571418745884675 7.1392034301157655e-05 0.002205534464472698
leaf_weight=186 189094 9510 19801 81367 4529 102 270
leaf_count=186 189094 9510 19801 81367 4529 102 270
internal_value=-3.1819e-13 -0.00050004 1.70779e-05 0.000138974 -4.66127e-05 -0.00364901 -0.000407309
internal_weight=304859 10068 294791 101168 193623 288 9780
internal_count=304859 10068 294791 101168 193623 288 9780
is_linear=0
shrinkage=0.03


Tree=85
num_leaves=8
num_cat=0
split_feature=9 1 0 5 1 1 9
split_gain=3.8288 4.5974 6.53508 4.51171 6.62825 4.75925 1.18861
threshold=0.045525620089622361 0.12696836285495072 0.021180028311754504 -31.405229524629842 -0.27767249293845314 -0.18836564907175177 0.032528634852135557
decision_type=2 2 2 2 2 2 2
left_child=1 2 -1 5 -5 -2 -3
right_child=3 6 -4 4 -6 -7 -8
leaf_value=0.00011990058730179376 -0.0053802961064982665 0.0023222320596303645 -0.00037538776299175379 0.0022702489865149109 -0.00015718068909644517 -0.00084390418286621309 0.00079692599677130837
leaf_weight=171981 291 508 27860 1023 97619 731 4846
leaf_count=171981 291 508 27860 1023 97619 731 4846
internal_value=-1.94247e-14 7.4095e-05 5.0852e-05 -0.000152552 -0.000132006 -0.00213558 0.000941651
internal_weight=304859 205195 199841 99664 98642 1022 5354
internal_count=304859 205195 199841 99664 98642 1022 5354
is_linear=0
shrinkage=0.03


Tree=86
num_leaves=8
num_cat=0
split_feature=0 1 5 5 1 3 3
split_gain=3.51698 4.84213 5.23279 3.00241 2.3773 4.47754 1.47366
threshold=-0.007310922396385749 -0.029778816600344198 5.7999464983289508 -30.089870018365367 -0.10579021244641003 -0.11734309514009431 -0.21774767885403565
decision_type=2 2 2 2 2 2 2
left_child=1 3 -3 -1 6 -6 -2
right_child=4 2 -4 -5 5 -7 -8
leaf_value=-0.0010948502108685603 -1.9802147441242827e-05 0.00019975958134055475 0.00096415616713510022 -1.1069101802892674e-05 0.0005799911240274016 -9.0744911708175288e-05 -0.001195897594781869
leaf_weight=2410 1483 41600 9997 50650 9409 186597 2713
leaf_count=2410 1483 41600 9997 50650 9409 186597 2713
internal_value=6.84814e-13 0.000140931 0.000347863 -6.02947e-05 -7.36727e-05 -5.85471e-05 -0.000780228
internal_weight=304859 104657 51597 53060 200202 196006 4196
internal_count=304859 104657 51597 53060 200202 196006 4196
is_linear=0
shrinkage=0.03


Tree=87
num_leaves=8
num_cat=0
split_feature=0 0 1 4 4 3 2
split_gain=3.35596 3.56127 3.19065 2.21704 1.61945 1.36919 1.3671
threshold=0.017008756609477555 0.063751893902896012 0.086566520830787655 42.54257772823987 82.314767998289554 0.15642180725565316 0.040979758760852768
decision_type=2 2 2 2 2 2 2
left_child=2 4 3 -1 -2 -4 -3
right_child=1 6 5 -5 -6 -7 -8
leaf_value=-0.00010857772903164054 -0.00029774978350958445 0.001621997808707154 0.0011539944685079353 9.4792089700828101e-05 0.00075989324643388099 0.00036148573120760807 0.00023063738304403056
leaf_weight=69955 57823 678 2776 155447 1333 6691 10156
leaf_count=69955 57823 678 2776 155447 1333 6691 10156
internal_value=1.13995e-12 -0.000182337 5.43357e-05 3.16749e-05 -0.000273917 0.000593872 0.00031771
internal_weight=304859 69990 234869 225402 59156 9467 10834
internal_count=304859 69990 234869 225402 59156 9467 10834
is_linear=0
shrinkage=0.03


Tree=88
num_leaves=8
num_cat=0
split_feature=9 7 5 9 3 9 9
split_gain=3.66013 7.02876 4.94645 3.92331 2.92452 2.51068 1.18033
threshold=0.057189665341604655 0.017038485676202354 -30.089870018365367 0.07097124757484137 -0.15057930023388505 0.028616602233963753 0.039473042426519701
decision_type=2 2 2 2 2 2 2
left_child=4 3 -3 -2 6 -6 -1
right_child=1 2 -4 -5 5 -7 -8
leaf_value=9.1531262054819049e-05 -0.00050290122187469661 -0.0027383533930755216 6.4971818367123132e-06 -0.001670311535152476 0.00015762287733738875 -4.1368556180466734e-05 0.00097398322901521
leaf_weight=2016 8515 600 38869 3724 89520 157396 4219
leaf_count=2016 8515 600 38869 3724 89520 157396 4219
internal_value=-5.18354e-13 -0.000230001 -3.52295e-05 -0.000858113 4.69795e-05 3.07763e-05 0.000688655
internal_weight=304859 51708 39469 12239 253151 246916 6235
internal_count=304859 51708 39469 12239 253151 246916 6235
is_linear=0
shrinkage=0.03


Tree=89
num_leaves=8
num_cat=0
split_feature=9 1 3 9 6 6 9
split_gain=3.46621 4.34701 4.25204 3.89684 3.61417 2.50967 1.10779
threshold=0.045525620089622361 0.12696836285495072 -0.16462869477194977 0.07097124757484137 2.8370718706990594 1.7909292797478169 0.032528634852135557
decision_type=2 2 2 2 2 2 2
left_child=1 5 4 -4 -2 -1 -3
right_child=2 6 3 -5 -6 -7 -8
leaf_value=8.0767680689572451e-05 0.0004135473844700199 0.0022469170939582433 -0.0001345691886207129 -0.00068306994944297857 -0.0031987406362414608 -0.00029596230342978914 0.00077438118358721529
leaf_weight=182405 13412 508 72092 13906 254 17436 4846
leaf_count=182405 13412 508 72092 13906 254 17436 4846
internal_value=-2.98885e-13 7.04994e-05 -0.000145149 -0.000223263 0.000346408 4.78982e-05 0.000914099
internal_weight=304859 205195 99664 85998 13666 199841 5354
internal_count=304859 205195 99664 85998 13666 199841 5354
is_linear=0
shrinkage=0.03


Tree=90
num_leaves=8
num_cat=0
split_feature=8 1 1 8 4 6 4
split_gain=3.14529 6.28412 3.8642 3.33633 2.97217 2.20164 1.50113
threshold=0.22873858278822959 -0.14472955749670233 -0.27767249293845314 -0.043997911434365149 80.767174026956027 2.4909737197486872 19.058546176058986
decision_type=2 2 2 2 2 2 2
left_child=2 6 3 -1 -3 -4 -2
right_child=1 4 5 -5 -6 -7 -8
leaf_value=0.0024690705954774537 -0.0055719461043438716 -0.00023671326249784805 5.1101656532847975e-05 -0.0029494256676863067 0.00070002198459289712 -0.00048510918286770384 -0.0022905175889510812
leaf_weight=924 176 47828 245032 115 3256 7091 437
leaf_count=924 176 47828 245032 115 3256 7091 437
internal_value=4.21934e-13 -0.00021324 4.35447e-05 0.00186933 -0.000177007 3.60206e-05 -0.00323266
internal_weight=304859 51697 253162 1039 51084 252123 613
internal_count=304859 51697 253162 1039 51084 252123 613
is_linear=0
shrinkage=0.03


Tree=91
num_leaves=8
num_cat=0
split_feature=8 1 1 7 7 8 1
split_gain=2.9594 5.91273 3.63583 3.42048 3.31937 3.13916 1.94686
threshold=0.22873858278822959 -0.14472955749670233 -0.27767249293845314 0.029183489042609406 0.12946330010094917 -0.043997911434365149 -0.015227072278713399
decision_type=2 2 2 2 2 2 2
left_child=2 3 5 -2 -3 -1 -4
right_child=1 4 6 -5 -6 -7 -8
leaf_value=0.0023949984080338087 -0.006027489159478927 -0.00014392443130320843 -6.886881992423615e-05 -0.0013990799931039688 -0.0022773788983643027 -0.0028609429166206843 0.00010188698763576608
leaf_weight=924 230 50419 98848 383 665 115 153275
leaf_count=924 230 50419 98848 383 665 115 153275
internal_value=-5.62453e-15 -0.000206843 4.22384e-05 -0.00313568 -0.000171697 0.00181325 3.494e-05
internal_weight=304859 51697 253162 613 51084 1039 252123
internal_count=304859 51697 253162 613 51084 1039 252123
is_linear=0
shrinkage=0.03


Tree=92
num_leaves=8
num_cat=0
split_feature=0 1 7 1 7 7 7
split_gain=3.41667 4.36107 4.13859 2.24341 2.83729 2.17166 1.75977
threshold=-0.007310922396385749 -0.029778816600344198 0.081683888580665762 0.13628412578505086 0.037546182302872558 0.10204661960631072 0.12946330010094917
decision_type=2 2 2 2 2 2 2
left_child=1 2 -1 4 -2 -5 -3
right_child=3 6 -4 5 -6 -7 -8
leaf_value=-0.00010475734293724418 -6.26496614945556e-05 0.00035166839140663548 0.0012800947196586513 0.00042232654835600643 -0.00046928999710342295 -0.00088270030864426134 -0.0015388672938335987
leaf_weight=51041 169675 51150 2019 12272 16989 1266 447
leaf_count=51041 169675 51150 2019 12272 16989 1266 447
internal_value=-8.51567e-14 0.000138907 -5.2062e-05 -7.26144e-05 -9.96595e-05 0.000300288 0.00033529
internal_weight=304859 104657 53060 200202 186664 13538 51597
internal_count=304859 104657 53060 200202 186664 13538 51597
is_linear=0
shrinkage=0.03


Tree=93
num_leaves=8
num_cat=0
split_feature=8 1 1 3 6 1 3
split_gain=2.83354 6.47735 3.60802 2.94486 2.42315 1.81662 1.29671
threshold=0.17370695287715027 -0.15929987034706813 -0.24055793865099204 0.22937425494859121 0.34540769435248392 -0.021852490272903896 -0.14232133592222398
decision_type=2 2 2 2 2 2 2
left_child=2 6 4 -3 -1 -4 -2
right_child=1 3 5 -5 -6 -7 -8
leaf_value=-0.0026602810639253056 -0.0039529036129676565 -0.00022748739850868516 -7.4698148452202444e-05 0.00029951911011603965 0.0015360486185838041 0.00010047811006503576 -0.00086918278021568603
leaf_weight=132 479 57567 82436 11439 2005 150636 165
leaf_count=132 479 57567 82436 11439 2005 150636 165
internal_value=1.45344e-12 -0.000168075 4.97703e-05 -0.000140126 0.00127685 3.85194e-05 -0.00316282
internal_weight=304859 69650 235209 69006 2137 233072 644
internal_count=304859 69650 235209 69006 2137 233072 644
is_linear=0
shrinkage=0.03


Tree=94
num_leaves=8
num_cat=0
split_feature=9 5 1 1 5 1 9
split_gain=3.33086 3.50411 5.31528 5.09432 1.99975 1.97481 1.59958
threshold=0.028916235597110155 -33.28458724112452 -0.18836564907175177 -0.27767249293845314 -2.134506648221016 0.017530635538741655 0.022798409029238253
decision_type=2 2 2 2 2 2 2
left_child=4 2 -2 -3 5 -1 -6
right_child=1 3 -4 -5 6 -7 -8
leaf_value=0.00013432912247140382 -0.0052487030188205939 0.0020526365412397813 -0.00069885447310774813 -6.4412357668103393e-05 0.00055500425609555112 -0.00029325488571600158 0.00013589813134712262
leaf_weight=47497 271 1028 1569 209449 15852 12223 16970
leaf_count=47497 271 1028 1569 209449 15852 12223 16970
internal_value=-3.43548e-13 -6.54676e-05 -0.00136897 -5.40724e-05 0.000150201 4.68147e-05 0.000338313
internal_weight=304859 212317 1840 210477 92542 59720 32822
internal_count=304859 212317 1840 210477 92542 59720 32822
is_linear=0
shrinkage=0.03


Tree=95
num_leaves=8
num_cat=0
split_feature=9 8 1 3 3 8 9
split_gain=3.18072 5.16555 4.69257 4.12643 2.81158 2.70709 1.10525
threshold=0.057189665341604655 0.10420922622806691 -0.20122093361018581 0.28874517203622807 -0.15057930023388505 0.70525952375346856 0.039473042426519701
decision_type=2 2 2 2 2 2 2
left_child=4 2 -2 -3 6 -6 -1
right_child=1 3 -4 -5 5 -7 -8
leaf_value=9.5136385249740358e-05 0.0009351806568758768 -0.00095126310321606356 -0.00013501016922637705 8.1055984262347328e-05 3.4439322887815321e-05 -0.0014827604343793123 0.00094906290958837606
leaf_weight=2016 4190 11831 30747 4940 245853 1063 4219
leaf_count=2016 4190 11831 30747 4940 245853 1063 4219
internal_value=-1.84928e-13 -0.00021441 -6.66201e-06 -0.000647187 4.37949e-05 2.79076e-05 0.000672958
internal_weight=304859 51708 34937 16771 253151 246916 6235
internal_count=304859 51708 34937 16771 253151 246916 6235
is_linear=0
shrinkage=0.03


Tree=96
num_leaves=8
num_cat=0
split_feature=0 1 8 4 8 4 4
split_gain=3.26361 4.07773 3.62047 2.58441 3.24344 1.92046 1.11694
threshold=-0.007310922396385749 -0.029778816600344198 -0.3595587435401783 73.452280830427867 0.13545997051547512 60.059835562464649 87.455020011509248
decision_type=2 2 2 2 2 2 2
left_child=1 2 -1 4 -2 -3 -5
right_child=3 5 -4 6 -6 -7 -8
leaf_value=0.00058174672842181121 -2.4823183810811331e-05 0.00025426935938042223 -0.0001462774285320026 0.00022659582551301334 -0.00030647483439081625 0.00079490655059227648 0.0011698861662915385
leaf_weight=7097 133991 44784 45963 14254 50730 6813 1227
leaf_count=7097 133991 44784 45963 14254 50730 6813 1227
internal_value=1.83471e-13 0.00013576 -4.89011e-05 -7.09693e-05 -0.000102173 0.000325656 0.00030136
internal_weight=304859 104657 53060 200202 184721 51597 15481
internal_count=304859 104657 53060 200202 184721 51597 15481
is_linear=0
shrinkage=0.03


Tree=97
num_leaves=8
num_cat=0
split_feature=9 8 9 9 0 2 4
split_gain=3.12251 3.97959 5.10032 3.94294 2.20744 1.77373 1.49659
threshold=0.028916235597110155 0.05731572696003346 0.07097124757484137 0.11274790850533141 -0.007310922396385749 0.032909650181301896 44.560518074142841
decision_type=2 2 2 2 2 2 2
left_child=4 3 -3 -2 6 -6 -1
right_child=1 2 -4 -5 5 -7 -8
leaf_value=0.00018291267369513364 2.9416760042091029e-05 -0.00014937871445344254 -0.00096441724733387784 0.0020855588828373323 7.3344539779087944e-06 0.00046047077428061617 0.00068286184659102839
leaf_weight=11872 126123 77765 7584 845 61911 8891 9868
leaf_count=11872 126123 77765 7584 845 61911 8891 9868
internal_value=4.85989e-13 -6.33871e-05 -0.000221802 4.31008e-05 0.000145427 6.42373e-05 0.000409845
internal_weight=304859 212317 85349 126968 92542 70802 21740
internal_count=304859 212317 85349 126968 92542 70802 21740
is_linear=0
shrinkage=0.03


Tree=98
num_leaves=8
num_cat=0
split_feature=0 9 7 1 9 7 7
split_gain=3.01898 3.33396 6.16439 2.48324 3.51651 2.42361 2.11639
threshold=0.0042938099800280509 0.037678690202699656 0.019476123333093353 0.13628412578505086 0.075776640918843965 0.036800336320356508 0.0008689849307050001
decision_type=2 2 2 2 2 2 2
left_child=1 6 -3 5 -5 -2 -1
right_child=3 2 -4 4 -6 -7 -8
leaf_value=-0.00043201717524167001 -0.00010893998142512981 -0.00030554264691264526 0.0002069162141137622 0.00041149194872875815 -0.001618830342595352 -0.00055415427329458245 0.00023338453000344814
leaf_weight=4518 100534 43681 40913 12051 820 12357 89985
leaf_count=4518 100534 43681 40913 12051 820 12357 89985
internal_value=6.17894e-13 7.91102e-05 -5.76973e-05 -0.00011266 0.000282142 -0.000157673 0.000201573
internal_weight=304859 179097 84594 125762 12871 112891 94503
internal_count=304859 179097 84594 125762 12871 112891 94503
is_linear=0
shrinkage=0.03


Tree=99
num_leaves=8
num_cat=0
split_feature=5 8 1 7 5 8 1
split_gain=2.49081 4.21945 3.61087 2.4808 2.75556 2.52281 2.33962
threshold=1.8480898101844139 0.28426780786833122 -0.18836564907175177 0.081683888580665762 13.405204857873843 0.70525952375346856 -0.27767249293845314
decision_type=2 2 2 2 2 2 2
left_child=1 6 -3 5 -5 -2 -1
right_child=3 2 -4 4 -6 -7 -8
leaf_value=0.0014212291037325659 0.0001044189731173925 -0.0040804255651753565 -0.00046215124670875678 0.00015381748708310778 0.0019790961703685011 -0.0020297259740135144 -2.8064725747188828e-05
leaf_weight=1008 100529 252 16584 1670 1343 501 182972
leaf_count=1008 100529 252 16584 1670 1343 501 182972
internal_value=4.94551e-14 -6.17234e-05 -0.000516309 0.000119134 0.000967408 9.38359e-05 -2.01243e-05
internal_weight=304859 200816 16836 104043 3013 101030 183980
internal_count=304859 200816 16836 104043 3013 101030 183980
is_linear=0
shrinkage=0.03


end of trees

feature_importances:
atr_pct=111
price_vs_sma20=108
price_vs_sma5=81
cmf_20=73
rsi_vs_vnindex=67
rsi_14=65
bb_width_norm=61
rel_momentum_20=49
volume_ratio=45
rel_momentum_5=40

parameters:
[boosting: gbdt]
[objective: regression]
[metric: rmse]
[tree_learner: serial]
[device_type: cpu]
[data_sample_strategy: bagging]
[data: ]
[valid: ]
[num_iterations: 100]
[learning_rate: 0.03]
[num_leaves: 8]
[num_threads: 2]
[seed: 42]
[deterministic: 0]
[force_col_wise: 0]
[force_row_wise: 0]
[histogram_pool_size: -1]
[max_depth: 3]
[min_data_in_leaf: 100]
[min_sum_hessian_in_leaf: 0.001]
[bagging_fraction: 0.7]
[pos_bagging_fraction: 1]
[neg_bagging_fraction: 1]
[bagging_freq: 0]
[bagging_seed: 400]
[bagging_by_query: 0]
[feature_fraction: 0.5]
[feature_fraction_bynode: 1]
[feature_fraction_seed: 30056]
[extra_trees: 0]
[extra_seed: 12879]
[early_stopping_round: 0]
[early_stopping_min_delta: 0]
[first_metric_only: 0]
[max_delta_step: 0]
[lambda_l1: 0]
[lambda_l2: 0]
[linear_lambda: 0]
[min_gain_to_split: 0]
[drop_rate: 0.1]
[max_drop: 50]
[skip_drop: 0.5]
[xgboost_dart_mode: 0]
[uniform_drop: 0]
[drop_seed: 17869]
[top_rate: 0.2]
[other_rate: 0.1]
[min_data_per_group: 100]
[max_cat_threshold: 32]
[cat_l2: 10]
[cat_smooth: 10]
[max_cat_to_onehot: 4]
[top_k: 20]
[monotone_constraints: ]
[monotone_constraints_method: basic]
[monotone_penalty: 0]
[feature_contri: ]
[forcedsplits_filename: ]
[refit_decay_rate: 0.9]
[cegb_tradeoff: 1]
[cegb_penalty_split: 0]
[cegb_penalty_feature_lazy: ]
[cegb_penalty_feature_coupled: ]
[path_smooth: 0]
[interaction_constraints: ]
[verbosity: -1]
[saved_feature_importance_type: 0]
[use_quantized_grad: 0]
[num_grad_quant_bins: 4]
[quant_train_renew_leaf: 0]
[stochastic_rounding: 1]
[linear_tree: 0]
[max_bin: 255]
[max_bin_by_feature: ]
[min_data_in_bin: 3]
[bin_construct_sample_cnt: 200000]
[data_random_seed: 175]
[is_enable_sparse: 1]
[enable_bundle: 1]
[use_missing: 1]
[zero_as_missing: 0]
[feature_pre_filter: 1]
[pre_partition: 0]
[two_round: 0]
[header: 0]
[label_column: ]
[weight_column: ]
[group_column: ]
[ignore_column: ]
[categorical_feature: ]
[forcedbins_filename: ]
[precise_float_parser: 0]
[parser_config_file: ]
[objective_seed: 16083]
[num_class: 1]
[is_unbalance: 0]
[scale_pos_weight: 1]
[sigmoid: 1]
[boost_from_average: 1]
[reg_sqrt: 0]
[alpha: 0.9]
[fair_c: 1]
[poisson_max_delta_step: 0.7]
[tweedie_variance_power: 1.5]
[lambdarank_truncation_level: 30]
[lambdarank_norm: 1]
[label_gain: ]
[lambdarank_position_bias_regularization: 0]
[eval_at: ]
[multi_error_top_k: 1]
[auc_mu_weights: ]
[num_machines: 1]
[local_listen_port: 12400]
[time_out: 120]
[machine_list_filename: ]
[machines: ]
[gpu_platform_id: -1]
[gpu_device_id: -1]
[gpu_use_dp: 0]
[num_gpu: 1]

end of parameters

pandas_categorical:[]
